window.MODEL_WEIGHTS = {"classes":["circle","horizontal","static","vertical"],"n_channels":3,"seq_len":100,"layers":[{"type":"conv","weight":[[[0.33183,0.288299,0.0575069,0.23849,0.052314],[0.0105555,-0.102914,0.168893,0.284721,-0.135941],[0.112624,-0.0695189,0.073838,-0.0663286,0.0587255]],[[0.0234017,0.166246,0.0203337,-0.0864813,0.126621],[-0.297995,-0.259577,-0.159077,0.0596527,-0.176396],[-0.0404386,-0.01003,-0.100535,0.0102231,-0.214954]],[[0.260728,-0.296423,0.23584,0.0320068,-0.0750949],[0.108578,-0.0306151,0.148203,0.0226069,-0.0924813],[0.015432,-0.0355889,0.118768,0.199073,0.164574]],[[-0.054589,0.0631637,0.041372,0.100778,-0.0991836],[-0.367292,0.0168742,-0.312847,0.211479,0.042729],[0.144805,0.0404126,-0.0832045,0.175925,-0.153263]],[[0.0941305,-0.112001,0.108761,-0.155702,-0.0558354],[0.040365,0.268309,-0.136823,-0.109329,-0.145288],[0.32689,0.072676,0.220731,-0.174926,-0.232159]],[[-0.273937,-0.142261,0.176831,0.112623,0.298365],[-0.0288414,-0.0799931,0.156201,-0.115407,0.15731],[-0.123026,0.0691048,-0.127422,-0.0603855,0.176007]],[[0.069319,-0.0202041,0.0706443,0.148968,-0.173715],[0.0182723,0.316244,-0.0296764,-0.0705026,-0.303582],[-0.154576,0.0577511,-0.0576296,-0.203565,-0.0189017]],[[-0.165054,-0.173765,-0.0794635,-0.206164,-0.159073],[0.319933,0.119329,0.156533,-0.178432,-0.13538],[-0.0671968,0.0349333,-0.291173,-0.100911,-0.121024]],[[-0.0361829,-0.0803996,-0.0521857,-0.0539791,-0.242912],[-0.174654,-0.0560463,-0.203877,0.286622,-0.0261067],[0.211636,0.0553652,-0.204822,0.152389,-0.0992515]],[[-0.192002,-0.229356,-0.199893,0.149957,-0.117176],[0.0248286,-0.141792,0.121272,-0.198583,-0.146318],[0.076733,0.214386,0.259649,0.213618,-0.134017]],[[-0.00889725,-0.122027,-0.0252806,-0.0704815,0.213529],[-0.210186,0.108945,0.147791,0.147452,-0.0849597],[0.335823,0.0945358,0.0185682,-0.206954,0.114176]],[[0.0174212,-0.0523095,0.286408,0.0934178,-0.0737541],[-0.115278,0.00917533,0.134263,-0.0810173,-0.163053],[-0.0449827,-0.190818,0.135417,0.250582,-0.203442]],[[0.108068,0.136559,0.0602014,-0.088277,0.0732062],[0.156879,0.209644,0.0463545,-0.0454594,-0.000563763],[-0.0609299,-0.112275,0.159127,0.181465,-0.0610415]],[[-0.0801954,0.018223,0.0144089,0.0318482,0.0116909],[-0.341083,-0.157442,0.235952,0.107382,0.0576633],[-0.107849,-0.0604357,-0.121164,-0.0337369,0.0733221]],[[0.202284,0.171748,-0.367321,-0.177588,-0.0139907],[0.147,-0.0395567,-0.0707471,0.0966237,-0.0633451],[-0.102964,0.184276,-0.0720446,-0.000980711,-0.221393]],[[0.134827,0.158585,0.066986,-0.20725,-0.27554],[-0.175726,0.272822,0.135924,0.258655,0.210696],[0.0664388,0.00205145,-0.14104,-0.190388,-0.244677]]],"bias":[2.41733e-06,-1.9363e-06,5.42374e-05,1.06057e-05,-5.62429e-05,1.25298e-05,7.99702e-07,-8.27406e-06,9.26563e-06,6.87359e-06,-8.54299e-06,8.0848e-06,-3.18581e-05,8.83583e-06,1.75599e-05,9.11993e-06],"pad":2},{"type":"bn","weight":[0.991283,1.00194,1.00415,0.999857,0.964443,1.04089,0.986694,0.990766,0.908018,0.934664,0.967076,1.01066,0.987108,1.01978,1.00018,1.03203],"bias":[-0.152046,0.0491847,-0.0034747,0.121204,0.0947654,0.00569786,0.200489,0.0606539,0.129001,0.060835,-0.0263293,0.131758,-0.231322,-0.00592571,-0.0666636,0.283839],"mean":[-0.00273597,-0.000846003,0.000122418,0.000109099,0.00085219,-0.00055761,0.00065987,0.00262329,0.0015019,0.00173544,-0.000529011,0.000334617,-0.000760401,-0.000180003,-0.000511017,0.000662808],"var":[0.821367,0.633547,0.24252,0.235383,0.198491,0.215909,0.185312,0.902635,0.239074,0.47681,0.179612,0.152169,0.235542,0.152194,0.20685,0.771311],"eps":1e-05},{"type":"relu"},{"type":"maxpool","size":2},{"type":"conv","weight":[[[0.139962,-0.112266,0.00866013,0.0457324,0.126299],[-0.0818952,0.0633982,-0.0881363,0.0238238,0.0862793],[-0.031443,-0.00931626,-0.0239878,-0.109568,0.0623519],[-0.0114636,0.0966115,0.113344,0.135064,-0.0337085],[-0.0706669,0.019961,-0.0202158,-0.127979,-0.0419079],[-0.146071,0.0542321,-0.00299121,-0.0311908,0.0242754],[-0.0868284,0.0982755,0.0980322,-0.0499029,-0.0258018],[-0.120687,-0.12105,-0.0519186,0.145611,-0.102174],[-0.0301012,0.0435749,0.0445472,-0.0760872,-0.0814679],[-0.11181,-0.081945,-0.0606914,-0.0219093,0.0567499],[-0.0325926,0.00877723,-0.0813533,0.0218684,0.117433],[0.0696843,-0.12264,0.0453007,0.0489334,0.0204089],[0.130805,0.163727,-0.00350605,0.0479357,0.00109278],[-0.0516881,0.0158032,0.0028638,-0.0477307,-0.0831734],[-0.0975017,-0.0735532,-0.00202282,-0.0894145,-0.0798769],[0.0545032,-0.106683,-0.119129,-0.0742168,-0.214313]],[[-0.0525054,0.0487166,-0.0335059,-0.0196606,-0.0911995],[-0.105828,-0.0691527,-0.161876,-0.147669,-0.142109],[0.110177,0.00205306,-0.0139403,0.0603484,0.0245728],[0.0911536,0.107159,0.099512,-0.139504,0.0595011],[0.00655207,-0.0205943,-0.0339496,0.0839264,0.0164804],[-0.0241313,-0.0550083,-0.0964502,-0.00024115,-0.0569687],[-0.0361435,-0.122304,-0.120894,-0.0131867,0.139887],[-0.0486911,-0.0910164,0.0012573,-0.0729805,-0.0592239],[-0.0326065,0.0364689,0.110267,-0.172065,0.0742222],[-0.108693,-0.0145518,-0.00125156,-0.0436309,0.111443],[-0.0496186,-0.0332896,9.8052e-05,-0.0552482,-0.0639117],[-0.0474131,0.0486121,0.0255202,-0.0120411,0.0141894],[-0.13642,0.0176547,0.0415949,-0.0668837,-0.0690333],[0.116183,0.058133,0.0413381,0.0465986,-0.148085],[-0.0449408,-0.0543718,-0.0288139,0.0533987,0.0437138],[0.0309257,0.16781,0.0939459,0.102805,-0.00159534]],[[0.00682986,0.0425019,-0.102154,-0.0390655,0.0470963],[-0.00310625,-0.0213533,0.0751428,0.150993,0.0452255],[-0.0347564,-0.148289,-0.0672106,-0.0262203,0.0243112],[-0.0575042,-0.155296,-0.0403933,-0.138522,-0.0313173],[0.0917135,0.0790626,-0.0116625,-0.00547022,-0.138467],[0.0799745,-0.000407342,0.147845,0.042166,-0.109623],[-0.0612437,0.0775817,0.0956514,-0.105336,-0.046958],[-0.160809,-0.10904,-0.000290804,0.0186392,0.0101326],[-4.13476e-05,0.0837737,-0.00909586,0.0126001,-0.0232747],[-0.0318499,-0.00192616,-0.104889,0.0160153,-0.0223509],[-0.0355624,-0.0632141,0.0699666,0.0573918,0.107969],[0.129083,0.0433813,-0.0283472,-0.0606101,0.0923712],[-0.128422,-0.141123,-0.134841,-0.0230592,0.022237],[-0.0307041,-0.107075,-0.0112159,-0.0992896,-0.0660229],[0.0495523,0.0111843,0.117511,0.0693319,0.0453816],[0.0379324,0.0196738,0.0088028,0.0529065,0.0557519]],[[0.0951474,0.0962812,-0.00414762,0.0208535,0.0225551],[0.0533101,0.0180448,0.0619056,0.0752904,0.054673],[-0.118575,-0.0964462,-0.0288772,-0.0397504,-0.029233],[0.0148856,0.0409687,-0.00506253,-0.111581,-0.0775478],[0.120807,-0.140898,0.040031,0.108138,-0.100257],[-0.0430365,-0.0635225,0.0402545,0.0197334,-0.0637135],[0.0428037,-0.0580716,0.0371149,0.0639975,0.0852566],[-0.0640083,0.0284212,0.160213,0.0725242,0.0202104],[-0.101275,-0.0122464,-0.11061,0.113699,-0.070024],[-0.0746305,-0.00129887,0.0967278,0.0666538,0.0364884],[-0.00827974,0.178729,0.0326754,0.118136,-0.0588209],[0.0937076,-0.00695223,0.0965641,-0.0105828,0.0323047],[0.00387313,-0.0408501,0.0583918,0.121409,0.109766],[0.0555929,0.0616897,-0.0784613,0.0102659,-0.0445225],[0.0404059,-0.113261,-0.111185,-0.0895771,-0.151357],[-0.0371297,-0.102151,0.0107394,0.113211,-0.164924]],[[-0.0166108,0.0263846,-0.0909363,-0.122736,0.0825125],[-0.120736,-0.0553284,0.0588886,-0.08057,-0.0252358],[-0.0449579,0.0478597,0.0627276,0.0746323,0.106242],[0.035195,-0.12441,-0.103336,-0.2232,-0.228007],[0.0140784,-0.107159,0.028796,-0.0338178,-0.0233124],[0.0661978,-0.116128,0.0256779,0.0948883,0.0891662],[0.0429962,0.0210419,0.0221926,0.0315302,0.10267],[-0.0882172,-0.0870964,0.0302413,-0.0154961,0.00625479],[-0.0444053,-0.10474,-0.0416088,0.10328,-0.139353],[-0.0340741,-0.0304499,-0.150308,0.0545926,-0.100117],[0.0576741,0.0460914,-0.0633732,0.0171329,-0.101433],[-0.0637267,0.060282,0.0455679,-0.119377,-0.0518261],[-0.0652145,-0.0336266,-0.0883228,-0.00432593,0.0608624],[-0.0869301,0.0180984,0.0784792,-0.117511,-0.0349502],[0.148547,0.0183406,0.0134539,-0.00874808,0.0776465],[0.0646456,0.114243,0.0618186,0.016266,0.115796]],[[-0.0436546,-0.0899332,-0.0534122,0.103516,-0.0199802],[0.00921929,-0.108211,0.059059,0.0470244,-0.0121915],[0.00516604,-0.000595064,0.0744169,-0.0846524,-0.0794978],[-0.037011,0.126364,0.0655166,-0.0979622,0.0355469],[-0.229168,0.00270631,-0.154415,-0.120431,0.0382249],[-0.0461172,-0.101335,0.0024821,-0.0460834,0.0764451],[-0.122235,-0.0334794,-0.221655,-0.0964779,0.0631253],[0.121088,0.0355005,0.109981,0.0147679,0.0651793],[-0.0318874,0.0795169,-0.0518063,0.132545,-0.0189259],[-0.109674,-0.0669503,-0.0873856,0.0561891,-0.0462683],[-0.00433393,0.0869267,-0.04301,-0.0126194,0.0427683],[0.0199112,0.020325,-0.196903,0.0680821,0.000456684],[0.0802286,-0.0470947,-0.0359042,-0.00644969,-0.0288259],[0.0151612,-0.0294354,0.0853443,-0.0113735,0.111971],[-0.121847,-0.0557452,-0.181503,-0.0781359,0.0364214],[-0.192507,-0.0550546,0.0682942,0.0762728,0.0104593]],[[-0.0998431,-0.112401,-0.00335924,0.0724365,-0.00216182],[0.0154463,0.0525989,0.102859,-0.00885641,-0.0208015],[0.0307289,-0.127689,-0.108176,0.0550334,-0.0275265],[-0.0383917,-0.0318571,0.0457577,0.190903,-0.00726381],[0.0478977,0.0654981,-0.129349,0.0433717,0.0113791],[0.0150534,-0.0495106,-0.00148823,-0.114702,-0.017375],[0.157074,-0.0633106,-0.169301,0.0924225,0.154806],[0.113078,-0.0440462,-0.0929136,-0.014285,0.0192536],[-0.163003,0.0333487,0.0496485,0.0321292,-0.0577097],[-0.0546204,0.00715964,0.10036,0.00527048,-0.104098],[0.00652302,0.0240154,-0.0660716,0.0456593,-0.0497715],[0.0890063,-0.0526936,-0.114687,0.0627045,-0.0175408],[-0.0478943,-0.000429945,-0.0829033,0.047036,-0.127446],[-0.0423537,-0.185527,0.0747,-0.0690508,-0.0971682],[0.0326604,0.095734,0.0518604,-0.0207636,-0.0135052],[0.045858,-0.00211075,0.0771473,0.0908532,-0.010191]],[[0.176026,0.0687331,-0.0518465,0.05563,0.0795768],[0.0522982,-0.0936118,-0.0864735,-0.0599748,-0.113137],[0.0385381,-0.0662479,-0.00126302,-0.0476742,0.154919],[-0.0848734,-0.100397,-0.055267,-0.0117939,0.0885556],[-0.0337279,0.0284322,0.0724912,0.00343579,0.00401774],[-0.083433,-0.0746206,-0.0444214,0.0095999,-0.0610409],[-0.0521522,-0.00450618,0.0526427,0.13338,0.0412118],[0.0385324,-0.0705171,0.0359093,-0.0662503,-0.0121709],[0.0353325,-0.0112354,0.0959751,0.0917831,0.0279079],[-0.0473343,0.0802236,-0.0450995,-0.0407892,0.0583099],[0.0332927,-0.0415719,-0.0471835,-0.163202,-0.00738312],[0.00574785,-0.0228771,-0.0236733,-0.03983,-0.135524],[0.0508652,-0.00970372,0.0500688,-0.0511253,0.106945],[0.129627,0.0703063,0.145356,0.0911805,0.185627],[-0.0769632,-0.0931078,-0.138541,-0.0275753,-0.0983657],[-0.0464178,-0.00709621,-0.0140427,0.0333284,-0.115206]],[[0.0588531,-0.00683718,0.0180159,0.0174861,0.169025],[0.0975608,0.0841421,-0.0246819,-0.00858238,0.089281],[-0.21424,-0.0552547,-0.11647,-0.0662155,-0.148569],[0.099664,0.0466521,0.0231478,0.0509684,-0.0648517],[-0.0271271,0.00211013,-0.0837992,-0.0612287,-0.179241],[0.010828,0.024452,0.0437192,0.101233,0.0426806],[0.079618,0.0797633,-0.0346992,0.024998,0.172091],[0.0035078,-0.0258812,-0.0174266,-0.00167967,-0.041482],[-0.062812,0.0344677,0.0368607,-0.0339825,-0.15568],[-0.0974649,-0.0788131,-0.0268398,-0.0441802,0.0522763],[-0.110936,-0.0528259,-0.131273,-0.0583842,-0.0539706],[-0.0225603,0.0112285,0.0335515,0.0290605,-0.0571652],[-0.101544,-0.0355656,0.106813,0.0109106,-0.119381],[0.0258297,-0.092162,0.041843,-0.0524105,0.158839],[0.153558,0.0682941,0.0539384,0.0196334,0.0255182],[0.0766975,0.0528002,-0.0102565,0.0655466,-0.0558953]],[[-0.0947339,0.0113824,-0.0175678,-0.0248696,0.0456808],[-0.134739,0.0624977,0.0888493,-0.136415,-0.0420538],[-0.0359077,0.0295535,0.00785815,-0.0278616,-0.00281138],[-0.0482158,-0.0823606,-0.095397,0.041809,0.0254089],[-0.118273,0.00156747,-0.0696462,-0.344519,0.0477574],[-0.183314,-0.142908,-0.0249959,-0.105898,-0.165626],[-0.0484051,0.045795,0.0793436,-0.0425802,-0.0589429],[0.00932045,0.0156183,0.011101,0.0333605,0.0758631],[-0.078856,-0.0410354,-0.022635,-0.0431639,-0.0717521],[0.114125,0.0104673,-0.0212611,0.0451811,-0.00198585],[0.0900766,-0.104303,0.00851281,-0.0431117,0.0915825],[-0.138599,-0.0140924,-0.0916174,-0.0537215,0.0413468],[0.0675276,-0.0244462,-0.0201822,-0.0160061,-0.0251197],[0.00909982,-0.013408,0.109667,0.0283174,-0.00921303],[-0.0052895,0.0482317,0.0122736,-0.0657457,0.140674],[-0.0355875,-0.099529,-0.0834918,0.0184592,0.0479974]],[[0.0319855,-0.0187007,0.00292904,-0.0830514,-0.0658584],[0.167518,0.155026,0.111571,-0.112509,0.00854049],[0.00625317,0.0899052,0.042852,0.0986429,0.129094],[0.0766146,0.00417153,0.0266975,-0.0480358,0.0352051],[0.0124987,0.0418944,-0.0337234,-0.156829,-0.0607095],[-0.0898956,-0.0680765,-0.0166987,0.0442781,0.122532],[0.0608978,-0.021981,-0.040884,-0.194214,0.0107354],[0.0594983,-0.07958,0.0760045,0.0703215,-0.00492607],[-0.108763,0.0795663,0.0170243,0.0640487,-0.214836],[-0.0395492,-0.113829,0.0787552,-0.0461759,0.0529053],[0.0153176,0.00256225,0.0478347,-0.00120352,-0.0554937],[-0.195851,-0.0921334,-0.0201864,-0.0124121,0.00178249],[0.0145066,0.0585468,0.0476892,0.0470736,-0.103291],[-0.142678,-0.0404765,-0.0516318,0.0781654,-0.0789335],[0.0537016,0.134058,0.0192845,0.0422114,-0.217079],[0.0936148,-0.0490618,-0.0688473,0.0988133,-0.0339602]],[[0.101737,0.169159,-0.0418017,-0.00693785,0.0665794],[0.0017485,0.0576756,-0.058995,0.0375801,0.00135682],[0.0276315,-0.0614122,0.0489916,-0.00442177,-0.130522],[0.0872163,0.107298,0.133647,0.00310802,0.0960416],[0.0576916,0.0504359,-0.0164563,0.0311788,-0.0299782],[0.02663,0.0829959,0.155917,-0.131148,-0.00798412],[-0.098464,-0.0465284,-0.0358793,-0.0303693,0.0396056],[-0.0538254,-0.0452202,0.0429826,0.13793,0.0731352],[-0.00565354,0.0107639,0.0450376,-0.0101814,0.0337316],[-0.0701382,-0.116319,-0.0817318,-0.0533212,-0.089466],[-0.0915033,-0.0452832,-0.0863817,-0.00718064,-0.115923],[0.0178502,-0.00262529,-0.0789527,-0.224308,-0.0961172],[0.0174061,-0.0366595,0.0116614,0.0356717,-0.0127137],[0.0220754,0.0615454,0.159647,-0.0293856,-0.0651478],[0.101543,-0.0136937,0.0685376,0.105895,0.0463047],[-0.0770432,0.0575234,0.0603819,-0.0329386,0.112528]],[[0.125015,-0.0166968,0.0241265,-0.0437264,-0.0705049],[0.0363176,0.0590537,-0.114093,0.0484916,-0.151235],[0.0512712,0.105757,0.039943,-0.142037,-0.059374],[0.0896501,0.00598567,-0.0288306,0.0168034,-0.147624],[0.0101688,-0.0335949,-0.0250818,0.113958,-0.0298649],[0.0584131,-0.0277511,-0.0237328,0.0561671,0.0317193],[-0.00936211,0.0923964,-0.00464834,-0.00381361,-0.129744],[-0.144199,-0.0559452,-0.0458222,-0.0202757,0.101528],[0.0229251,0.0494716,-0.0286202,-0.167135,-0.0294591],[0.0337755,-0.0948305,-0.137789,-0.00914909,-0.0486105],[-0.000673484,0.0494795,0.00580572,-0.0769005,-0.0287527],[0.00242127,-0.0102272,0.0554562,-0.187669,-0.058867],[-0.000725317,0.0266533,-0.0116618,-0.0307961,-0.117199],[0.0213431,-0.0607362,-0.145921,-0.193348,0.0245556],[-0.0144899,-0.171843,0.0424246,-0.0139138,0.143518],[0.0892539,0.125746,-0.0368251,0.0306641,0.0746039]],[[-0.231675,-0.196353,-0.0931443,-0.0327704,-0.0752178],[-0.03793,-0.0193645,-0.00461352,-0.0738918,0.068641],[0.0834734,-0.0776185,-0.0599556,-0.0051576,0.0292387],[-0.0175359,-0.0297513,-0.0501096,0.051465,-0.0641581],[-0.0789632,-0.0331103,-0.0510232,0.0190917,-0.115882],[-0.0686627,-0.116845,-0.0918642,-0.142085,-0.247744],[0.0889422,0.0479406,-0.127612,0.04478,-0.00365366],[0.0157184,0.0959496,0.0637018,-0.0571277,0.139477],[0.027571,-0.0550978,0.0892586,-0.0696112,-0.0526656],[-0.0135159,0.0158383,0.0392773,-0.013984,-0.0891418],[-0.0487918,0.0477446,-0.00154279,0.0743377,0.0130641],[-0.106306,-0.0209979,-0.0642673,-0.0598264,-0.028374],[-0.0320887,0.124402,-0.00408298,-0.0046248,0.0220757],[0.0720673,-0.101031,0.0568186,0.0676019,-0.037255],[-0.163937,-0.0784191,-0.0200257,0.0777347,0.0151265],[0.0490818,-0.0784861,-0.117287,0.0354362,-0.00100077]],[[0.148091,0.0190517,0.0563489,0.0125637,0.0752087],[-0.0991213,0.0912687,-0.116825,0.10001,-0.00975805],[-0.142735,-0.023336,0.0116765,-0.10836,-0.0477431],[-0.0393085,0.0285092,-0.17659,0.0667036,-0.0294504],[-0.026805,0.0573166,-0.109591,-0.141224,-0.187805],[-0.113357,-0.0807931,0.0416437,-0.0687965,-0.038029],[-0.0193036,-0.0154985,-0.0728288,-0.0637888,-0.113507],[0.0091323,0.0168716,-0.0912905,-0.0515136,-0.0361302],[-0.0356624,-0.0162194,-0.094751,0.0037147,0.00108033],[0.093971,0.034597,-0.0420599,0.0412632,-0.0494574],[-0.00493006,0.0467776,-0.0660347,-0.0983948,0.163285],[0.0609461,0.0313934,0.161438,-0.0532993,-0.0171783],[0.0653737,0.108402,-0.0087189,0.0195805,-0.0743702],[-0.0893923,0.0123966,-0.119296,-0.0492145,-0.018467],[0.101855,0.0793701,-0.0457821,-0.0152603,0.0123465],[-0.0799318,0.0906669,0.0934455,0.0506425,-0.0619595]],[[0.128302,0.0994713,0.104337,-0.0118061,-0.0552929],[0.0541645,0.0354547,-0.0537349,-0.0239764,-0.0511875],[0.0443325,-0.0227222,0.105996,0.109912,0.141903],[0.0636348,0.0624006,0.0740406,-0.0365868,0.130104],[-0.0862725,-0.0371666,0.0102267,-0.066132,0.0589017],[0.0426469,-0.0165585,-0.00801304,-0.0053443,0.0414925],[0.0666797,0.0633968,-0.000246091,0.0222923,-0.031446],[-0.0797402,-0.0577077,-0.106101,-0.151523,-0.178145],[-0.0948329,0.108221,0.0499616,0.119821,0.168948],[-0.0195121,0.0781613,0.00452339,0.141154,-0.00977484],[0.0534498,0.0801645,0.0348152,0.0339974,0.00592575],[0.113298,0.0579972,0.044453,0.035701,0.0778347],[0.0780036,-0.0215936,0.0909596,-0.000495957,0.106937],[0.0314128,0.12291,0.0498268,-0.0451204,-0.0865048],[-0.0242444,0.037362,0.0288576,-0.0032131,0.0445866],[0.121203,-0.0715957,-0.057989,-0.0354631,-0.0565429]],[[0.0443289,0.0171279,-0.0316281,-0.0511241,-0.0735486],[0.131827,0.0519496,0.0886393,0.00938073,-0.00703647],[0.0512006,0.00821611,-0.0242478,-0.0691523,0.0203903],[0.0609721,0.0343401,0.0122931,-0.0229319,0.0240384],[-0.0287634,-0.0597254,-0.117571,0.0507962,0.0632483],[-0.0671329,0.00756012,-0.075803,-0.0637559,-0.0662045],[-0.114402,-0.0412358,-0.0255532,0.0840005,-0.0429821],[0.0257858,-0.0159535,-0.0430618,0.0439873,-0.0372598],[0.00995298,0.0089323,-0.011466,-0.0859284,-0.0227084],[0.0341027,-0.120515,-0.0059021,-0.0344863,0.0203967],[0.0165049,-0.0200831,0.0433208,0.0813694,-0.114787],[0.0684834,0.0329557,-0.0555576,-0.0134857,-0.146804],[-0.102124,-0.180342,-0.21697,-0.0585657,-0.244408],[0.127756,-0.0564138,0.0283285,-0.0220826,0.117509],[-0.0774069,-0.0219346,0.00790244,0.0450137,0.00707175],[0.0901648,7.46759e-05,-0.0937332,0.0835555,-0.086489]],[[-0.0366676,-0.0286894,0.15908,-0.00464472,-0.0253784],[0.0176394,0.0465973,0.047663,0.0790695,0.0266035],[0.0468266,-0.0787954,0.0242451,0.0264208,0.0376633],[-0.101388,0.00822881,-0.0172232,-0.0626681,-0.0105762],[0.0262854,0.0489666,0.0864885,0.000686758,0.0607657],[-0.0208123,-0.0806348,-0.0549812,-0.0723586,-0.158331],[0.0602412,-0.115593,-0.0206151,-0.192445,0.0357477],[-0.0331869,0.0355733,-0.019111,0.106868,-0.0611976],[0.0337148,-0.0498613,0.0633823,-0.0615697,0.0332599],[-0.0181779,0.0437857,-0.0085766,-0.195299,-0.00958757],[-0.0766997,0.0678901,0.0614208,-0.086308,-0.0593992],[-0.0120433,-0.0923399,0.103901,0.124318,0.11648],[-0.0645488,-0.23064,-0.0570552,-0.0989816,-0.143205],[0.031682,0.122057,0.0802646,-0.0119333,0.006735],[-0.101436,-0.045972,-0.0625637,-0.0452394,-0.104449],[-0.00311954,0.131997,0.175223,-0.0474178,-0.0291546]],[[-0.0867712,-0.0599073,-0.0463501,-0.0644098,-0.149957],[0.0693729,0.20596,-0.0513643,0.108775,0.137516],[0.0614029,0.0089739,0.0736961,0.0422689,0.0899652],[0.0961013,0.0626541,0.0664537,0.0596397,-0.120349],[-0.0864474,-0.0954857,0.0598304,-0.0173484,-0.0586923],[0.17207,-0.0965409,-0.0528364,-0.165651,0.022007],[0.00316715,-0.134748,-0.00497838,-0.0516716,-0.0460468],[0.166044,0.0648922,0.0467474,0.0767829,0.0711574],[0.0379398,-0.0519986,-0.0896142,0.0320373,0.00895132],[0.0851957,-0.0325413,0.0311081,0.044444,0.0766431],[-0.0463532,0.00430253,0.0414947,0.00553993,0.099018],[0.0103476,0.00914045,0.0581092,-0.0482475,0.000787804],[0.0427244,0.0207586,0.0464064,0.0847525,-0.0643836],[-0.0464251,-0.0314763,-0.0630747,-0.15423,-0.0369493],[-0.127529,0.115389,0.0742083,0.0744519,0.0903596],[-0.105849,-0.0239597,-0.0276313,0.197868,0.0739317]],[[-0.0750541,-0.128042,-0.00676954,0.0764044,0.171003],[-0.0758688,-0.0766296,-0.000488338,0.13941,0.0756055],[0.0277667,0.0177853,-0.0795863,-0.107591,-0.012188],[-0.12893,-0.111934,0.0485951,-0.0286037,-0.0677255],[-0.0359096,0.00760022,0.116234,-0.0136291,0.0285134],[-0.0188885,0.128837,0.0149282,-0.032747,-0.0982802],[-0.0698139,0.0402238,0.0718526,-0.0484904,0.0176704],[-0.161208,-0.143374,0.0578514,0.00627138,0.161898],[-0.0762211,-0.115074,-0.0818897,0.0535094,-0.0652344],[0.0366405,0.0215777,0.00935394,0.0572513,0.00265684],[0.0246801,-0.060535,-0.0766173,0.0901391,-0.00294058],[-0.0542836,-0.0446219,-0.0963131,0.0541559,-0.0373631],[-0.059615,-0.0812102,-0.00963884,-0.0878299,-0.00078131],[0.0641252,0.0827318,-0.104652,-0.132464,-0.10358],[0.0415424,0.010226,-0.00100119,-0.0544219,0.0307507],[-0.1482,-0.00408997,0.0502879,0.0429042,0.137235]],[[-0.0235458,-0.0613797,-0.0553943,0.101885,0.0700741],[-0.0496239,-0.00163541,0.00556989,-0.142011,-0.00231445],[0.0231694,0.0235675,0.10183,0.131064,0.0632456],[0.0983171,-0.0501884,-0.0157148,-0.143354,-0.0227109],[0.00429632,0.101386,-0.0360089,-0.0274848,0.000632786],[-0.0914748,0.0694832,0.0779422,0.0331437,-0.0739347],[-0.0798904,-0.0776711,0.0186234,-0.0130044,0.155219],[0.00806804,-0.0614774,0.00212886,-0.0433513,-0.01649],[0.0238778,-3.14771e-05,0.0126723,-0.089824,-0.0264139],[-0.110204,-0.0754919,0.00183008,0.124358,0.0806971],[-0.13084,-0.0334229,-0.201141,-0.0941578,-0.141158],[0.0313555,0.0265835,-0.157397,-0.0721336,0.0154371],[0.0629046,0.0137863,0.122789,-0.0207895,-0.0757344],[-0.0932697,-0.108641,-0.133768,0.0477186,-0.0947865],[0.0649773,0.0749485,0.0228135,0.0890675,-0.0218197],[0.0395091,-0.0915404,-0.0118305,-0.102234,-0.0275578]],[[0.0839158,-0.137306,0.0539021,-0.0359791,0.049042],[-0.0229658,0.14264,0.00577671,0.00279857,-0.0169178],[-0.154542,-0.0759066,0.0118657,-0.0777738,-0.101986],[-0.0526926,-0.0707755,-0.0550692,-0.139336,-0.145197],[0.0176148,0.0465472,0.0228703,-0.0219295,0.0369479],[-0.00924325,0.00562021,0.00201615,-0.120544,-0.0857996],[-0.0755699,0.0621299,0.0273436,0.0368624,0.0701198],[0.0102142,-0.0392333,-0.0414583,0.0216961,0.0936454],[-0.00950214,-0.0285546,0.0042028,0.103198,-0.0048738],[0.0391004,0.0701393,-0.00126444,0.0086823,0.00621473],[-0.192818,-0.0630557,-0.0906744,0.0188099,-0.00619136],[0.104095,0.122047,0.0393861,-0.0508556,-0.0436027],[-0.10369,-0.0228329,-0.165516,-0.143769,0.00307039],[-0.0266392,0.098095,-0.0400427,0.0314669,-0.112609],[-0.0507927,-0.0686714,-0.141562,-0.00453237,-0.0303384],[-0.14989,-0.125858,-0.141134,-0.0316755,-0.165887]],[[0.0811552,-0.0793584,-0.121564,-0.0167877,-0.0212604],[-0.0246176,0.028991,-0.117609,0.0732461,0.0636743],[-0.122653,-0.109671,-0.0167387,-0.00957509,0.0118198],[0.135611,0.0528588,0.0339566,0.0201913,-0.0691192],[-0.12001,-0.0430737,0.0607516,0.101817,0.0664458],[0.000524343,-0.0707929,-0.0142636,-0.00170242,-0.0953889],[-0.0201537,-0.045084,0.00404225,0.0369002,-0.0193546],[-0.0247691,-0.0278826,-0.102811,-0.056016,0.0546493],[0.00689767,0.0765008,-0.0806001,-0.18089,-0.0470813],[0.00136234,0.0474688,-0.0693052,0.0385974,-0.0482309],[0.0220192,-0.0521429,0.0719167,-0.00442339,-0.0708186],[0.131666,-0.149731,0.0494827,0.0434209,0.00462506],[-0.0146435,-0.0852902,-0.0650309,-0.0551297,-0.221399],[0.0396582,-0.118234,0.0189195,-0.0173913,-0.107589],[-0.055781,-0.00181352,0.07858,-0.0175242,0.09522],[0.0730187,0.112206,0.0973431,-0.0222471,-0.0659158]],[[0.0571819,0.00699337,-0.0541249,-0.076412,0.183984],[-0.0143066,-0.0593322,-0.103069,-0.0227855,0.0591658],[0.0398767,0.0973042,0.0142873,-0.0290246,0.0998127],[-0.0575583,-0.0718337,-0.06231,0.0652056,0.0520257],[0.043172,0.0199448,0.0234509,-0.0236489,0.0401883],[0.0633236,0.116794,0.117833,0.0699789,-0.0102642],[0.133788,-0.15993,0.0786974,-0.00349882,0.0566207],[0.0096432,-0.163035,0.0451388,-0.0458979,0.0861666],[0.0349736,-0.102792,-0.00994222,-0.0588883,0.0738008],[-0.0448228,0.0250118,0.0495626,0.0213095,0.109824],[0.00398643,-0.0222578,0.0640198,-0.0191976,-0.00568561],[-0.215066,-0.151038,-0.111803,-0.0240106,-0.0346178],[0.118064,0.0144578,-0.0994555,-0.0679381,-0.0167813],[-0.0160038,0.132599,0.0733533,0.0923562,-0.0341819],[-0.108444,-0.0318136,0.108237,0.0184805,0.0600882],[-0.143701,-0.17426,-0.0644083,0.0131872,0.000144362]],[[-0.0979926,-0.10061,-0.0984494,-0.0293532,-0.0251817],[0.0685992,-0.00415426,-0.0655244,0.0193603,0.0322827],[-0.0983774,0.00365112,-0.136928,-0.0849914,-0.025529],[-0.0699029,0.00808912,-0.00911628,0.00143196,-0.0365434],[0.0467613,0.02627,0.00330906,0.0147363,0.0152817],[-0.0745416,-0.129619,-0.0768323,-0.101665,-0.0670753],[-0.0229086,-0.00915745,-0.0351095,-0.0401455,-0.0607575],[0.0515437,0.0355817,0.0920922,-0.0715538,0.0712827],[-0.0399906,-0.0777918,-0.0603949,0.00776869,0.110299],[0.115636,0.0165714,-0.0189712,-0.0867209,0.00276206],[0.00748786,0.129353,0.0810907,-0.113891,-0.0910293],[-0.11196,-0.141103,-0.140498,-0.136688,-0.19332],[0.0963799,0.119929,-0.0912306,-0.0674676,0.065383],[-0.000422512,0.0261945,-0.006492,0.0218063,-0.0859649],[-0.0476525,-0.114823,-0.0614563,-0.0625172,-0.105095],[-0.0672314,-0.141909,-0.142699,-0.0764297,-0.018377]],[[0.104808,0.0745609,0.0783551,0.0206493,-0.00832267],[-0.0325192,0.0202275,-0.0877583,0.0362817,-0.113367],[-0.049616,-0.105088,0.114852,0.119535,-0.0203534],[0.032118,0.0329259,0.0105827,0.00287393,-0.149752],[-0.06026,0.029025,0.0526876,-0.159501,-0.0682365],[-0.0592136,-0.109244,0.118794,0.116315,-0.0880582],[0.0112844,-0.0572376,-0.0100062,0.0654358,0.0546499],[-0.125911,-0.122924,-0.13017,-0.0899494,0.0303757],[-0.0051185,-0.0845907,-0.129951,-0.103727,-0.0707248],[-0.0772011,-0.00895745,-0.123989,-0.0989582,-0.0940552],[-0.114615,-0.0770629,-0.0207645,0.044894,0.00734662],[-0.0301032,0.00788161,0.04512,0.0114962,-0.10735],[-0.0406467,-0.0952615,0.015929,-0.0788404,-0.0414427],[0.0479478,0.12639,0.0666353,0.113415,-0.0218793],[-0.0121622,0.00894385,-0.0801666,-0.0728667,-0.0120626],[-0.0350044,-0.107441,0.00763448,0.116418,0.0279221]],[[0.0041854,-0.00160378,-0.0149516,0.0522946,0.169684],[0.117548,0.0077744,-0.0588297,0.0678087,0.0261987],[0.000554345,-0.0495984,-0.0331291,-0.0822561,-0.0789594],[0.0562917,-0.00748137,-0.00757898,-0.0735577,-0.076197],[0.0653455,0.0496039,0.0323637,0.00471701,-0.0508078],[-0.151123,-0.0548445,0.00317612,0.0724951,0.134321],[0.0321436,0.0697086,-0.103426,0.0584426,-0.0223262],[-0.0333733,-0.102681,-0.0426525,-0.00253093,0.0135359],[-0.0774265,0.0523688,-0.0124028,0.0313454,-0.0407582],[-0.019673,-0.0991285,-0.0260766,0.0345681,0.045937],[0.0963109,-0.0163677,0.0526741,-0.0636231,-0.124536],[-0.044753,-0.151061,-0.14368,-0.142448,-0.149348],[0.0272978,0.00771568,-0.115341,-0.146219,-0.159894],[-0.0298237,-0.0266004,0.0388017,0.0485264,-0.0550831],[0.0538628,-0.0981308,-0.109328,-0.00880237,-0.126838],[-0.0261465,0.0371775,-0.0405008,0.000158347,0.0568658]],[[-0.218932,-0.0197369,-0.122874,-0.0203781,-0.163319],[0.0183083,0.063331,0.0686854,0.0616516,0.0420047],[-0.0780659,-0.0468657,-0.0301803,-0.0200593,0.0701014],[-0.0915032,-0.0947744,0.0167125,-0.117848,-0.0247782],[-0.013082,0.0736668,0.0534893,-0.0834615,0.0596053],[-0.0957325,-0.103767,-0.136472,-0.0205401,-0.106633],[-0.115298,0.0199101,-0.131791,-0.0425714,0.0682284],[0.0922178,0.0830468,0.0472048,0.0116838,0.0531411],[0.12609,0.025736,0.0448917,-0.108407,0.124051],[0.0819973,0.0943367,0.0820136,0.0347146,0.0319614],[0.0780934,-0.0441757,0.136467,-0.0556664,0.0707403],[-0.100863,-0.0914862,0.00594582,-0.0507224,-0.122558],[0.0194086,0.0254945,-0.0959578,-0.0183943,-0.126641],[0.0624602,0.0297893,0.0692891,-0.0307266,-0.0592552],[-0.134616,0.0412941,0.0687834,0.0650659,0.0854192],[0.0379129,0.0260744,-0.0253858,-0.0538175,0.0311523]],[[0.0284452,0.0483315,0.130113,-0.0318634,0.00674075],[-0.0811151,-0.0916284,-0.0968483,-0.163613,-0.0753655],[-0.0715107,-0.0178467,-0.0318025,-0.11991,-0.196257],[0.0588464,-0.0759105,0.05526,0.0225475,-0.0583485],[-0.0400466,-0.0058759,0.0886714,-0.0411369,0.0804315],[-0.0896352,-0.0532164,0.0673551,0.0506951,0.110622],[0.0815283,-0.0698377,0.0385096,0.0267932,0.0521705],[-0.205762,-0.0878857,-0.10466,0.0267626,-0.0146738],[0.0124214,0.0518037,0.107991,-0.0060024,0.115353],[0.0670872,-0.0447225,0.113856,-0.00137423,-0.137996],[-0.159097,-0.0190861,-0.0965099,0.0611306,0.0256964],[-0.0467524,0.0711252,-0.0610317,-0.0411567,-0.084867],[-0.0275418,-0.0179292,0.00382521,-0.0588173,-0.0744236],[-0.017202,0.0237753,-0.0398084,-0.137439,-0.0787361],[-0.021385,0.0507703,-0.0992521,-0.0823605,-0.0629845],[0.0197067,-0.058638,0.082011,0.0490253,-0.0555217]],[[0.00686616,-0.0880043,-0.0692437,0.0246004,-0.00136419],[0.00573909,0.129554,-0.0369242,-0.0414822,0.0754342],[-0.00684987,0.0311955,0.114626,-0.00489213,-0.0513333],[0.0396913,0.111111,0.109576,0.08253,0.0567186],[0.10666,0.0779219,0.071689,0.0531738,0.00875239],[-0.0103626,0.0966875,0.0749701,0.0782614,0.1963],[-0.0541177,0.00287159,-0.0575298,0.0134774,0.155989],[-0.105692,0.0545608,-0.0342877,-0.0302539,0.0515434],[0.066536,0.0898255,0.02718,-0.0779405,0.0261559],[-0.13843,-0.148551,-7.01858e-05,-0.0685908,0.0699016],[-0.149477,0.0164616,-0.00622815,-0.0233729,-0.0416444],[0.0621858,0.0552534,0.0237536,-0.0646473,-0.091161],[0.140745,0.0544968,0.0249937,0.110899,0.0501642],[-0.0212583,0.0895064,0.0661931,-0.0111031,0.0346345],[0.0081195,-0.0590959,0.10053,-0.102867,-0.0753848],[0.016501,0.0754892,-0.0601816,-0.151864,-0.135177]],[[0.0288168,-0.0474676,0.0115685,-0.0164122,-0.0353197],[-0.00602623,-0.0948529,-0.0252965,0.0481815,-0.0400982],[-0.0887947,0.0350275,0.0686726,-0.0460488,-0.000380849],[0.115628,-0.0183007,-0.0420029,-0.0614251,0.0106811],[0.0034849,-0.0548296,0.107714,-0.108759,0.0664384],[-0.00931415,-0.0462172,-0.0241175,-0.143546,0.122008],[-0.0637895,-0.143406,-0.0257536,0.109768,0.114755],[0.0342796,0.0138941,0.0287568,0.127018,0.0332746],[0.0936197,-0.154922,-0.0697485,-0.146783,-0.00261025],[0.0743295,-0.00457076,0.0029742,-0.125198,-0.0248489],[0.00956394,-0.0439933,0.053669,-0.0685341,0.0775663],[-0.131842,-0.0883794,0.0733263,0.0833443,-0.0592267],[0.0369355,0.0521051,0.0257613,0.0399907,-0.00408012],[0.165852,0.0734424,0.0307805,-0.0391994,-0.0884222],[-0.0149066,-0.13936,-0.0387467,-0.0483816,0.0146186],[0.0587203,0.0212543,-0.0420924,-0.11911,-0.318916]],[[0.26694,0.12507,0.0440259,-0.0262174,0.0717073],[-0.00520317,-0.00329899,0.0704234,0.0763727,0.107197],[-0.120891,0.00752754,-0.0866088,0.0428238,0.0893819],[0.148614,0.158349,0.101025,0.0436539,-0.036137],[0.00284426,0.0207213,0.106778,-0.0612391,-0.0555277],[-0.0565928,-0.129403,0.0749397,-0.0609774,0.0896538],[0.0188991,0.0411118,-0.0449646,0.0410169,0.0527313],[-0.170854,-0.138107,-0.180117,-0.181731,-0.133801],[-0.066448,0.0078697,0.00847034,-0.106587,-0.0265739],[-0.0833456,0.0899178,-0.0227803,0.0555133,0.110564],[-0.100631,0.000245379,-0.0318624,0.0375648,0.0718109],[0.0777928,-0.0723414,-0.0950867,0.0106818,0.0172594],[0.0757936,0.0260963,0.0436582,0.0371147,0.100551],[0.0736553,-0.0143536,-0.0616188,-0.0598043,-0.0777549],[-0.0100609,0.0127435,0.0500797,0.0209256,-0.0290648],[-0.0213807,-0.135597,0.0233318,-0.089435,-0.133191]]],"bias":[1.35731e-05,-9.67156e-06,2.57449e-05,2.09584e-05,2.62829e-05,1.91458e-05,2.51961e-05,1.06766e-06,-1.08698e-05,-2.43848e-05,-1.79891e-05,-3.22308e-05,2.29135e-06,-5.87137e-06,3.47729e-05,-3.15925e-07,1.36944e-05,3.18883e-08,-1.67786e-05,1.43069e-05,4.30029e-06,-3.83641e-06,-3.05545e-05,2.5918e-05,-1.27169e-05,-1.056e-05,-4.93773e-06,-5.98554e-06,-7.80519e-06,-1.75587e-05,1.35169e-06,-7.51605e-06],"pad":2},{"type":"bn","weight":[1.047,1.00552,0.889982,0.904923,1.07151,1.01943,0.926406,0.997074,0.917438,1.07829,0.955993,0.904726,0.859105,0.899297,1.08337,0.837424,1.0005,0.9606,0.968893,0.853698,0.895683,1.15578,1.04139,0.990786,0.959312,0.933871,0.991982,1.02969,0.958076,0.976073,0.991486,0.951864],"bias":[-0.189473,-0.170964,-0.0691965,-0.150951,0.0733411,-0.000399765,-0.0296293,-0.167749,-0.204472,-0.107761,-0.233298,-0.243994,-0.00878879,-0.165992,-0.231762,-0.33092,-0.112839,-0.0464352,0.0467064,-0.062951,-0.0753356,-0.135554,-0.0477374,-0.0378743,-0.217843,-0.15844,-0.122438,-0.186225,-0.09246,-0.130387,-0.118831,-0.163362],"mean":[-0.568986,-0.326732,-0.210645,0.140987,-0.388641,-0.651176,-0.0930767,-0.148902,-0.0291773,-0.872082,-0.162629,0.139864,-0.502687,-0.899248,-0.579346,0.820619,-0.474619,-0.229622,0.377861,-0.480092,-0.578587,-0.995345,-0.37993,-0.0734377,-1.36896,-0.753752,-0.715531,-0.284905,-0.67706,0.463949,-0.514582,-0.104732],"var":[0.411496,0.356524,0.151898,0.171719,0.609822,0.297705,0.305819,0.11755,0.54973,0.34989,0.24807,0.306319,0.420925,0.421006,0.256405,0.613888,0.359806,0.18178,0.314214,0.226017,0.25591,0.549441,0.225863,0.17062,0.61702,0.607303,0.306156,0.59311,0.228679,0.234018,0.289574,0.612579],"eps":1e-05},{"type":"relu"},{"type":"maxpool","size":2},{"type":"conv","weight":[[[0.07177,0.101508,0.0504514],[0.0457756,-0.000316643,0.00205871],[-0.0370798,0.00947733,-0.00319794],[0.0402538,0.0280313,0.078622],[0.0259426,-0.0170887,0.0432758],[0.076693,0.00745585,0.0174971],[0.0660366,0.0374414,0.0328049],[0.0582435,0.0699332,0.104037],[0.0679624,0.0464564,-0.00779487],[0.0809198,0.0846795,0.0648626],[-0.0138332,-0.0267947,-0.0796629],[-0.068369,-0.0699043,-0.0658021],[-0.0226917,0.0475008,-0.0277042],[0.0533617,0.0400684,0.054334],[0.134763,0.114308,0.153651],[0.028579,-0.00198578,-0.0177493],[0.0305048,0.0559472,0.114401],[-0.0806876,-0.077632,-0.0539039],[0.0148385,0.0227384,-0.0212947],[0.00180412,-0.00874415,0.0301858],[-0.0803665,0.0132288,-0.0358219],[-0.0739931,-0.0852688,-0.107919],[0.0468684,0.0519122,0.0442894],[-0.0217309,0.0115497,-0.0284471],[0.110617,0.0818213,0.0995662],[0.0169409,-0.0118761,-0.00829043],[-0.0485985,-0.02019,-0.0020555],[0.161541,0.0529906,0.0633901],[-0.102522,-0.0674812,-0.12896],[-0.00735066,0.0009587,-0.0138068],[-0.041588,-0.0508889,-0.00919044],[0.157976,-0.0184662,0.177744]],[[0.023051,-0.0272797,0.0183243],[0.0811702,0.0848877,0.107413],[0.0484616,-0.0548538,0.0105296],[-0.0349829,-0.0856033,-0.0721213],[-0.0429425,-0.0639273,-0.0457998],[0.0477976,0.0510921,0.0579785],[0.00171407,0.0185038,-0.0491384],[-0.0977179,-0.00413596,-0.0775661],[0.038656,0.0781346,0.157184],[-0.0209336,0.0147192,-0.0241237],[-0.0872133,-0.0431737,-0.0924229],[0.05636,0.110491,0.109396],[0.0106758,-0.0376288,-0.0547734],[0.0207469,-0.0826456,0.00956879],[-0.0934302,-0.152924,-0.119783],[0.0301281,0.0480525,0.114346],[-0.068492,-0.110847,-0.0360508],[-0.117246,-0.111066,-0.0185546],[-0.0981985,-0.0337128,-0.0134069],[-0.0137716,-0.092269,-0.152166],[-0.0334169,0.000497897,0.0132627],[0.0296492,-0.0847173,-0.0588327],[-0.0671382,0.00379396,-0.0468043],[0.0225561,-0.01635,-0.0616861],[-0.0883674,0.0181964,0.0330518],[-0.0424559,-0.166471,-0.0699935],[-0.0318094,-0.0889446,-0.0141165],[-0.160939,-0.0439538,-0.10195],[0.0431574,0.0329368,0.0919695],[0.00473374,0.0530177,-0.0368036],[0.0362215,0.047465,0.0622174],[0.022921,0.00468079,-0.0558507]],[[0.00117199,-0.0393351,-0.109501],[0.071059,0.0340469,0.199645],[0.0727576,0.0403858,-0.0254757],[-0.0352773,-0.0178545,-0.0526364],[-0.0570047,-0.11166,-0.11125],[0.079157,0.0671711,0.0847821],[-0.0177818,0.0750765,0.0628963],[0.129393,0.0176371,0.0704985],[0.109484,0.0847921,0.0814948],[-0.164308,-0.0166027,-0.0502149],[-0.0446003,0.0395401,0.0509119],[-0.0180234,0.009858,-0.0320692],[-0.0196504,0.044517,-0.00757044],[-0.0637457,-0.00734986,0.00504595],[0.0343389,-0.0146688,-0.0277768],[0.0237411,0.0451978,0.0887477],[-0.0142895,0.00196094,-0.0034216],[0.0284873,-0.0224715,0.00901152],[-0.0297305,-0.0215439,-0.12006],[0.0665925,-0.0483419,-0.0278002],[-0.0884728,-0.0255365,-0.0459515],[-0.145141,-0.106777,-0.0588668],[0.0776355,0.177448,0.0734997],[0.0617951,0.0731141,0.0690461],[-0.0270383,0.0898815,0.00121819],[-0.0124197,-0.0710893,0.0506549],[0.0820351,0.0080524,0.0408496],[0.0105078,0.0558533,-0.0187558],[0.0378613,-0.0539736,-0.0468159],[-0.0846262,-0.0583131,-0.0470972],[0.101451,0.109725,0.0524042],[0.0179985,0.0351349,-0.0353717]],[[-0.0525198,-0.0705324,-0.0203801],[0.110839,0.0386518,0.0904358],[-0.0482716,-0.0321616,-0.00128868],[-0.0566183,-0.0183324,-0.15127],[-0.0545914,-0.128032,-0.0871281],[-0.00528276,-0.0281891,0.127932],[-0.0028795,0.0598393,-0.0277507],[-0.0540445,-0.00315529,-0.104784],[0.0844749,0.159001,0.0231822],[-0.0304003,-0.0981626,-0.0334645],[-0.0254252,-0.0427825,0.00474807],[0.0561639,0.1314,0.146478],[0.0451401,-0.114272,0.0190981],[-0.0443886,0.0382913,-0.0877002],[-0.08481,-0.118408,-0.12684],[-0.0221113,0.132092,0.0496172],[-0.0323422,-0.0671412,-0.0161788],[-0.0218878,-0.0137309,0.0261341],[-0.0805197,0.00638212,-0.0745291],[0.0102886,-0.11142,-0.0593781],[0.029715,-0.046963,0.0788987],[-0.0649808,-0.0904282,-0.0209221],[0.0243138,0.0155741,-0.0489865],[0.0869971,0.0397827,0.0241341],[-0.0983518,-0.126361,-0.000836652],[-0.0256906,-0.124052,-0.0900089],[0.0220561,-0.0152842,-0.0184996],[-0.126758,-0.120625,-0.145734],[0.092561,0.101513,0.109713],[-0.031203,-0.00374952,-0.0796592],[-0.0345234,0.0565198,0.036886],[-0.00934871,-0.0595107,-0.0625467]],[[0.139034,0.153604,0.154982],[0.0808858,0.0332428,0.0238816],[-0.11916,-0.0192149,-0.0549173],[0.0752319,0.0335513,0.0894943],[0.0354637,0.024152,-0.0791491],[0.0471475,0.0844706,0.0325124],[0.0266648,0.006066,-0.0199583],[0.0164514,-0.0376874,0.0386499],[0.0194295,-0.031712,-0.0308633],[0.121238,0.104008,0.106877],[-0.0110916,-0.0723857,-0.139624],[-0.0552462,0.0412949,0.0487474],[-0.0559205,0.0178472,-0.104083],[0.140348,0.0588886,0.115409],[0.0767661,0.0647931,0.121712],[0.0468945,-0.0557519,0.00720201],[-0.0444023,-0.012833,0.012537],[-0.0992093,-0.134481,-0.0818561],[0.0688598,0.0598984,0.0247456],[0.00524563,-0.0184698,-0.0144345],[-0.0359446,-0.00557149,-0.00493117],[0.0308423,-0.0733252,0.00345419],[0.0175725,-0.0511387,-0.0308353],[-0.104443,-0.0535813,-0.115457],[0.0569896,0.0597306,0.0474464],[-0.00548086,-0.0254455,0.0473421],[-0.0892136,-0.0520767,0.000871082],[0.0399686,-0.0237612,0.0411089],[-0.0362964,-0.0445074,-0.126247],[0.030923,0.0407417,0.0556864],[-0.0450524,-0.045541,-0.033222],[0.0406639,-0.0349175,0.0068859]],[[0.0595313,-0.0819261,0.0941782],[0.0547711,0.021362,0.0110777],[0.0086307,0.0659033,0.0743764],[0.033339,-0.0238447,0.0278934],[-0.039431,-0.0251363,-0.129105],[0.0822189,0.0173499,0.129804],[0.0187234,0.019779,0.0501648],[0.0662497,0.132414,0.0805892],[0.0668333,0.0214839,0.0126431],[-0.0276841,-0.055523,-0.0964334],[0.055668,0.033359,0.0257316],[-0.0509045,0.0111747,0.000198785],[0.0112369,0.0241319,-0.0610058],[-0.0177178,0.105252,0.0325496],[0.07977,0.0433609,0.0299343],[0.00764454,0.0407526,0.0527807],[-0.0163464,0.0723835,0.0353312],[-0.0730574,-0.00949136,-0.0465249],[0.0194692,-0.00209447,-0.0981663],[0.0647623,0.0705853,0.00924553],[-0.153989,-0.0620235,-0.0673093],[-0.0998807,-0.0788049,-0.0902625],[0.130105,0.116563,0.112486],[0.0518442,0.0775379,0.0734157],[0.0482599,0.0475405,0.0574884],[-0.0263169,0.0494713,0.0252716],[0.0409432,0.0450965,0.0369155],[0.0435912,0.0186727,0.0760539],[-0.082135,-0.0686991,-0.0702869],[-0.0892075,-0.0908858,-0.102359],[0.107843,0.06953,0.11249],[0.129292,0.0498199,0.0423672]],[[0.18393,-0.00476124,0.13031],[-0.0324157,0.0242625,-0.0209191],[-0.0447981,-0.111195,-0.0453226],[0.0180538,0.0639919,0.0401355],[0.0254472,0.00275284,0.0784658],[0.0364428,-0.0368014,-0.089345],[-0.068169,-0.10349,-0.0218031],[-0.0226163,-0.0176644,-0.0752352],[-0.052193,-0.0915206,-0.0023582],[0.0243688,0.0443448,0.0526545],[-0.0534309,-0.0296472,-0.0966401],[0.0634958,0.0473375,0.0255239],[-0.0127213,-0.0281385,-7.617e-05],[0.0848893,0.0435453,0.0184891],[0.063576,0.10165,0.135457],[-0.0195004,-0.00721679,-0.0414632],[-0.0385752,-0.0393413,0.0334963],[-0.0543048,-0.0900378,-0.0147292],[0.0759451,0.0377735,0.0845348],[-0.115967,-0.0309753,-0.0616796],[0.0357764,0.0338842,0.0773937],[0.145636,0.0858833,0.113558],[-0.101102,-0.0948616,-0.0151805],[-0.154755,-0.0972586,-0.100044],[0.0731045,-0.0130203,0.0566203],[0.00777109,-0.0307294,0.0576064],[-0.099808,0.000837954,-0.120286],[0.0717303,0.0394686,0.024347],[0.0494306,0.0147913,-0.0847429],[0.0882128,0.10216,0.103891],[-0.0162926,-0.0724622,-0.0841745],[-0.115658,-0.101244,-0.0763548]],[[-0.0358419,0.0419101,-0.111331],[-0.118184,-0.111239,-0.147159],[0.0172878,-0.0056024,-0.0177068],[-0.0274283,0.0124464,0.0321692],[0.125621,0.144269,0.160494],[-0.0361747,-0.0799688,-0.181961],[-0.00266089,-0.0530582,-0.0648225],[0.0016516,0.0487568,0.0128943],[-0.0692984,-0.0881757,-0.0199602],[-0.0803951,-0.0357836,-0.000411425],[0.0636349,0.075044,0.0140541],[-0.0863752,-0.0926997,-0.0274614],[0.0259765,0.0649658,0.0528531],[-0.0731603,-0.017145,-0.0184296],[0.0810733,0.0947133,0.0236949],[-0.112387,-0.0668564,0.0395187],[0.114196,0.146463,0.0332743],[0.0632132,0.122693,0.0722054],[0.079199,0.120576,0.0637861],[0.0253577,0.0119109,0.0796264],[0.0602194,0.0439125,0.0434827],[0.18043,0.0400486,0.104141],[-0.0437727,-0.0342974,0.0184979],[0.0431951,0.0301581,-0.0280546],[0.017325,0.0246787,0.0181505],[0.0360652,0.0468368,0.120525],[0.0450529,0.0244335,0.053761],[0.0597344,0.100749,0.0497018],[0.010438,-0.0124125,0.0312703],[0.0407638,0.00596908,-0.0103011],[-0.00357907,-0.052974,-0.147098],[0.00157323,-0.00993463,0.0269362]],[[-0.0437563,-0.0735408,-0.0713085],[0.119861,0.0288604,0.0877022],[0.0479206,-0.0228089,0.0283173],[-0.0461872,-0.080457,-0.188806],[-0.137713,-0.0516524,-0.0962931],[-0.0402038,0.0759667,0.0426127],[0.0702711,-0.00176186,0.033822],[-0.0199453,-0.0147579,0.00444067],[0.117773,0.119321,0.0339154],[-0.0231303,-0.0658108,-0.0499277],[-0.0148003,0.00913889,-0.00556636],[0.0670541,0.0786465,0.0541607],[-0.00514518,-0.0752362,0.0375068],[-0.0140175,-0.00225345,-0.0807685],[-0.0218601,-0.106968,0.0017655],[0.0330367,0.035315,0.0261299],[-0.0776093,-0.0119616,0.0116388],[-0.0506294,0.0346919,0.0463399],[-0.0461547,-0.0648154,-0.0318725],[-0.0340839,-0.0569084,-0.107466],[-0.00795402,-0.0419626,0.0309197],[-0.0695253,-0.0723557,-0.0664385],[0.0366548,0.0440849,0.0168152],[0.0913084,0.096466,0.0694371],[-0.0905705,-0.129095,-0.0138291],[0.0292524,-0.140071,-0.12551],[0.0166842,0.0364542,-0.0188112],[-0.163045,-0.0463576,-0.146553],[0.0652015,0.116791,0.121626],[-0.0335982,0.00236895,-0.0524031],[0.0880254,-0.0258733,-0.013659],[-0.0859853,-0.026877,-0.0100758]],[[-0.0573547,0.0171029,0.00515043],[-0.0211368,0.00185095,0.0228801],[-0.0187331,-0.00178782,0.0330819],[-0.110893,-0.0113019,-0.102222],[0.0235139,-0.00020681,-0.0730113],[-0.0588996,-0.102552,0.00972552],[0.0448623,-0.0403687,-0.0830577],[-0.0619729,-0.0701355,-0.0700999],[0.0620433,-0.0302563,-0.019573],[0.0234876,-0.0954731,-0.0848083],[0.0346885,0.0196959,0.0602675],[0.0329266,-0.00306685,0.0402989],[0.00941857,0.107087,0.114252],[-0.0459875,-0.0940894,-0.066777],[-0.131681,-0.0327103,-0.111542],[-0.0273923,0.0844433,0.0485023],[-0.0262286,-0.0366026,0.10244],[0.065738,0.0620593,0.0676179],[0.109906,0.0119147,0.0440485],[-0.0320642,-0.0913578,-0.0176036],[0.0400774,0.0132047,0.0629768],[0.0851573,0.0978726,0.0675244],[0.0195723,-0.0454252,-0.0175531],[0.077975,0.0780931,0.0249773],[-0.0898269,-0.214017,-0.116305],[0.0303293,-0.0773648,0.0181516],[-0.026021,-0.0240173,0.0349491],[-0.0381266,-0.088595,-0.123641],[0.117642,0.0564693,0.127432],[0.0103738,-0.0294502,-0.112233],[-0.0151609,-0.08786,0.0402503],[-0.178874,-0.135373,-0.18765]],[[0.0325921,0.0270728,0.0437565],[-0.0675348,-0.10831,-0.114407],[-0.0233676,0.0290499,0.0455982],[0.0295306,0.00206686,0.0959636],[0.0951132,0.117027,0.0836436],[0.0328138,-0.0171816,0.032995],[0.0253727,0.0505442,0.0201682],[0.0877878,0.105601,0.0970541],[0.0296285,-0.00118576,-0.0105303],[-0.0596612,-0.0135037,0.0497739],[0.0955574,0.044613,0.0126984],[-0.118187,-0.0570636,-0.0953102],[-0.012523,0.0399884,-0.0327521],[0.0124484,0.0215314,-0.0718268],[0.115321,0.138157,0.110918],[0.0606005,-0.0355903,0.0625684],[0.119409,0.0558854,0.117914],[0.0748564,0.0506682,0.0426557],[0.0964264,0.0964141,0.0601074],[0.0197784,0.0387173,0.0423089],[-0.0448633,0.0178838,-0.0218827],[-0.0433371,-0.0995992,-0.00899234],[0.0638635,0.0375276,0.0641796],[0.0364965,0.0534126,0.00739818],[0.13956,0.0162817,0.0944004],[0.0684543,0.106528,0.031004],[-0.0210738,0.0634862,0.0997043],[0.102584,0.104416,0.0340992],[-0.0493715,-0.0430892,-0.0130166],[-0.0460718,-0.0693723,-0.0583532],[-0.105377,-0.0353146,-0.0601257],[-0.00948351,0.06698,0.0137953]],[[-0.0659359,-0.0641801,-0.0298529],[0.0674328,0.0828236,0.137869],[0.0416331,-0.0227458,-0.00236953],[-0.0926429,-0.0414468,-0.131013],[-0.0476412,-0.147977,-0.124119],[0.0457894,0.0346853,0.0760979],[0.0230265,0.0403052,0.0296486],[-0.0466392,-0.0437811,-0.0211079],[0.0424214,0.0628139,0.10417],[0.0545964,-0.0821266,-0.0163892],[-0.00314239,0.00206705,-0.00836407],[0.0434027,0.109731,0.0437893],[-0.0401386,0.0311672,0.0146782],[-0.0897024,0.0577651,-0.0118414],[-0.0946901,-0.0676882,-0.124646],[0.0588224,0.140875,0.0540744],[-0.0864629,-0.12435,-0.00396055],[-0.0292972,-0.0564672,0.013292],[-0.0484973,-0.0595655,-0.0649777],[-0.0638425,-0.0422751,-0.128985],[-0.0438193,0.0090437,0.0328076],[-0.00516319,-0.10789,-0.0399099],[0.0106359,0.00799657,-0.0101218],[0.0552412,-0.0144413,0.0387538],[-0.0790659,-0.0256742,-0.0254438],[-0.00860029,-0.0446052,-0.0240445],[0.00694017,-0.0112896,-0.0112834],[-0.142944,-0.0138786,-0.141969],[0.104079,0.0500575,0.0497569],[0.00070498,0.0230956,-0.0154614],[0.0615268,-0.00535251,0.0458666],[-0.0180164,-0.0216227,-0.0310352]],[[-0.0121696,-0.0439782,-0.0913391],[-0.0238925,-0.0709592,0.0363771],[0.0979316,0.0797359,0.0616375],[0.0189294,-0.00619196,0.0112649],[-0.089263,-0.0614481,-0.00953844],[0.10531,0.0943174,-0.0134091],[0.0530789,0.0268038,0.0364949],[0.132743,0.00269109,0.0993755],[0.0321523,0.0946841,0.0344872],[-0.108751,-0.140058,-0.0535734],[0.0844747,0.0524105,0.0526788],[-0.0286824,-0.0328968,-0.019828],[0.0645614,0.00759512,0.0475866],[-0.0446269,0.00259597,0.069185],[-0.0203336,0.0812804,0.0996029],[-0.000502725,-0.0251249,0.0805844],[0.0165457,0.0766337,0.0774292],[0.121005,0.0107474,0.00938577],[-0.0140469,0.00409591,-0.00280666],[0.0204073,0.0396746,0.0205343],[-0.0191531,0.0429822,0.0227688],[-0.0910308,-0.0351265,-0.137489],[0.101416,0.0900298,0.12218],[0.135584,0.0756901,0.1264],[-0.0574106,0.0394077,0.0717163],[-0.0432801,0.0356803,-0.0567886],[0.0176932,0.115982,0.122984],[0.0251242,0.092517,0.064034],[0.0151913,-0.0477214,-0.0452956],[-0.137681,-0.125818,-0.0970399],[0.0395039,0.0722521,-0.023518],[0.0293484,-0.0169458,0.0535999]],[[-0.100589,-0.0586193,-0.0110741],[0.101592,0.0532924,0.100562],[-0.0112105,0.0687615,0.00723205],[-0.106594,-0.112571,-0.176462],[-0.0647032,-0.109238,-0.114796],[0.0492675,0.0112148,0.0954074],[0.0827685,0.069278,0.0221841],[0.00608831,-0.018914,-0.031941],[0.217268,0.0769302,0.00919289],[-0.0494752,-0.0665981,-0.0768313],[0.0538961,-0.0110974,-0.0534724],[0.00037016,0.0463294,0.026004],[0.0109118,0.0594272,0.00659961],[-0.0762215,-0.0762656,-0.00633122],[-0.0869485,-0.103108,-0.0184051],[-0.0277154,0.115146,0.0126017],[-0.0219895,-0.0249782,0.0425293],[0.0592949,-0.00861544,0.000660992],[0.0124292,-0.0546553,-0.0722508],[-0.027516,-0.092531,-0.0317171],[-0.0488627,-0.0283664,0.0665341],[-0.047368,-0.0193953,-0.0978675],[0.0195588,-0.000560707,0.0647125],[0.124377,0.110075,0.0211103],[-0.0684663,-0.151066,-0.0319301],[-0.0415624,-0.0813041,-0.0667031],[-0.00198395,0.0131685,0.00498559],[-0.122714,-0.0792823,-0.0415579],[0.0708043,0.0712257,0.0782033],[-0.0713304,-0.090683,-0.0276094],[0.0904274,-0.0184647,0.0204526],[-0.0825839,0.0272782,-0.043584]],[[0.0297679,0.0141344,-0.00214609],[0.079007,-0.00182868,0.0785587],[0.0292884,0.0315274,0.0545542],[0.0281967,-0.00517288,-0.0272233],[-0.0462617,-0.0391285,-0.163882],[0.0843113,0.0256199,0.0795381],[0.00512159,0.0337987,0.0763382],[0.096548,0.103717,0.109662],[0.111328,0.0146758,0.135959],[-0.0177618,-0.115638,-0.113345],[0.0140895,0.0380312,0.0192698],[-0.0877838,0.0670043,-0.00638307],[0.0180646,-0.052331,-0.0455571],[-0.0454743,0.0706212,0.046509],[0.0385575,0.0818698,0.0241266],[0.0371834,0.117907,-0.0192454],[0.026425,-0.0129675,-0.0578225],[-0.000417764,-0.0256755,-0.0703658],[0.0374658,-0.0290719,-0.0391561],[0.0229987,0.125159,-0.0322471],[-0.157162,-0.0483431,-0.0265353],[-0.157632,-0.06693,-0.0574086],[0.11434,0.215613,0.150808],[0.0371672,0.0430593,0.0841849],[0.0036774,0.117842,0.00362651],[0.0115201,-0.0389586,0.0354364],[0.073828,0.0863351,0.0619278],[0.0403165,0.0372626,0.0148747],[-0.0195004,-0.0716663,-0.0371243],[-0.0724707,-0.0907379,-0.113726],[0.071905,0.0479857,0.112604],[0.0277705,0.00788829,0.120109]],[[0.0372236,0.0186934,0.0098276],[0.0586343,0.0371794,0.0285323],[-0.0547043,-0.112377,-0.00984962],[0.0031035,-0.0599543,-0.0141682],[0.0144643,-0.0411094,0.0261466],[0.109099,-0.00174077,0.0177954],[-0.0510829,-0.045704,-0.03505],[-0.0912274,-0.0612101,-0.0739675],[0.0204703,0.0447136,-0.0236261],[0.0374596,-0.03248,0.0438408],[-0.0655579,-0.146667,-0.12743],[0.0481487,0.117014,0.0845684],[-0.0704177,-0.00267382,-0.0822519],[0.0233251,0.0326723,0.0669709],[0.0362024,-0.100969,-0.0518174],[0.0681286,-0.0215866,0.00657845],[-0.0591806,-0.142653,-0.154655],[-0.112575,-0.102419,-0.035839],[-0.00429725,-0.0163377,-0.020361],[-0.0870536,-0.119719,-0.0432136],[-0.0915913,0.000742529,-0.0167291],[0.0663784,0.0105477,0.0871719],[-0.0611299,-0.146455,-0.0778288],[-0.0669372,-0.0782966,-0.0938267],[-0.066143,-0.0757414,-0.0145522],[0.00189312,-0.0895662,-0.046359],[-0.0649944,-0.0736485,-0.0612465],[-0.0484148,-0.0160241,-0.0108798],[-0.0322344,0.0472333,0.0200593],[0.0469347,0.10245,0.0669782],[-0.0504049,-0.0759221,-0.00131746],[-0.00244079,-0.0565561,0.0632484]],[[-0.0535207,-0.0716974,-0.0330669],[0.0523878,0.030881,0.0704603],[0.00221282,-0.0486797,0.0709217],[-0.0884657,-0.105552,-0.105066],[-0.0261511,-0.0159383,-0.11853],[-0.0197846,-0.052267,0.0398916],[0.0117846,0.0177779,-0.0254364],[-0.0183888,0.00111512,-0.0306912],[0.0538617,0.120489,-0.0277132],[-0.0947443,-0.0922403,-0.0410957],[0.0628315,0.0175658,0.046405],[-0.0282256,0.00794383,0.0981742],[-0.0589905,-0.0239461,0.0579983],[0.0542622,-0.0278773,-0.0600922],[-0.111947,-0.126665,-0.0811924],[0.0231484,0.00640713,0.0918264],[-0.0510139,-0.0102991,0.0203558],[0.0393436,0.0275446,0.0252487],[0.0561089,0.0782017,-0.0704809],[-0.00073672,-0.0891126,-0.0391406],[0.0230014,-0.0210227,0.0830863],[0.0447552,-0.0434898,-0.0278655],[-0.0377937,0.0265875,-0.0144877],[0.0731303,0.0434816,-0.00611613],[-0.204073,-0.105593,-0.0543167],[0.0075412,-0.120376,-0.0595869],[0.00234163,-0.00200573,-0.0143031],[-0.128838,-0.163435,-0.144152],[0.173072,0.0857533,0.169028],[-0.0149325,-0.0144336,-0.0693322],[0.0500002,-0.0421152,-0.0141201],[-0.115329,-0.0447057,-0.101019]],[[-0.0673698,-0.0976506,0.010674],[0.0404803,0.00838909,0.0676001],[0.0503017,-0.0674305,-0.0306637],[-0.0558977,-0.0984314,-0.157072],[-0.0361969,-0.0489109,-0.0173472],[-0.0646166,0.00173938,0.00118201],[0.0201323,0.0471909,-0.0364419],[-0.0560202,-0.0100278,-0.0846258],[0.0820527,0.0652329,0.0468969],[0.0079796,-0.146628,-0.00236448],[0.02198,0.00827441,0.0491981],[0.0220119,-0.008755,0.0205319],[-0.035309,0.00439851,0.0348079],[0.0240421,-0.111999,-0.0635479],[-0.140702,-0.0782153,-0.0624606],[-0.018575,0.0261002,0.0656112],[-0.0340527,0.0421709,0.0705124],[0.038287,0.0288005,0.071072],[0.0455642,0.042603,0.011099],[-0.0552734,-0.0798566,-0.0182698],[0.0563193,0.0392672,0.0579158],[-0.0208743,0.0532109,-0.0246252],[0.0284201,-0.0177371,0.00909813],[0.0974824,0.0922396,7.14244e-05],[-0.161354,-0.119052,-0.105125],[0.0440792,-0.0570994,-0.0396384],[0.020258,-0.049095,-0.00409379],[-0.0966584,-0.0484168,-0.167616],[0.155609,0.129731,0.128814],[-0.0587708,0.0054007,-0.115839],[0.034876,-0.0818619,0.00604331],[-0.102284,0.0110712,-0.171574]],[[-0.0584511,-0.00763346,-0.132542],[-0.115129,-0.100367,-0.0678255],[0.0351653,-0.00507032,0.0467551],[-0.0345539,-0.00668845,0.0561783],[0.0317667,0.0948976,0.123784],[-0.069527,-0.0895148,-0.151938],[-0.0466144,-0.0412014,-0.0410346],[0.013086,0.020357,-0.0487836],[-0.0359152,-0.0188426,-0.0433195],[-0.0145528,-0.0444278,-0.0417167],[0.0368224,0.0489918,0.0608282],[-0.0828864,-0.0387672,-0.11344],[0.0170719,0.0775501,0.152974],[-0.0774959,-0.0548967,-0.0891151],[-0.0460689,-0.026977,0.0618649],[-0.127971,-0.00550027,0.0045923],[0.0314214,0.11193,0.0970345],[0.110375,0.0737494,0.102967],[0.111459,0.0864968,0.0643501],[0.0190278,0.00368848,0.0207875],[0.104335,0.106286,0.0049565],[0.147849,0.0337649,0.111382],[-0.0092918,-0.057943,-0.0134661],[0.0397646,0.00725061,0.0458693],[-0.0323669,-0.020263,-0.0641892],[-0.0241352,0.0449395,0.0769301],[0.073149,0.0854681,0.0219173],[0.0387027,-0.0337447,0.0927596],[0.0660492,0.00833618,-0.030248],[-0.0231828,-0.00605165,-0.0330952],[-0.0323279,-0.0228372,-0.125024],[-0.0685057,-0.0337005,0.0409824]],[[-0.0148871,-0.0146259,-0.00121333],[0.0266251,0.0763473,0.0125576],[-0.0138794,-0.0184251,-0.091978],[-0.0573729,-0.0626952,-0.0734052],[0.0459816,-0.0455291,0.0115249],[0.00821674,-0.0907838,0.0166722],[-0.0732088,-0.03452,-0.0452595],[-0.0709559,-0.0348908,-0.106841],[0.0634243,-0.0777495,-0.00723653],[-0.00245746,-0.0418564,-0.0134861],[0.0403039,0.0450667,0.00379443],[0.0454154,0.0370884,0.0820377],[-0.00832742,-0.0181806,0.101626],[0.0286276,-0.149772,-0.0132991],[-0.120064,-0.0989055,-0.0412459],[0.0656296,0.0190851,0.110873],[-0.00380282,-0.0121915,-0.0765319],[0.0124664,-0.000391825,0.0212142],[0.0144423,0.0467571,0.00829453],[-0.0270216,-0.112237,-0.0119487],[0.00719707,0.0250259,0.00788602],[0.0128294,0.132966,0.137147],[-0.0325592,-0.124289,-0.0607146],[0.00287444,-0.0170909,-0.0800567],[-0.0885879,-0.203783,-0.112479],[-0.0451726,-0.144685,0.0349408],[-0.0687045,-0.0181884,-0.0327217],[-0.0824644,-0.00463736,-0.14039],[0.0807123,0.15634,0.100375],[-0.00231784,0.0254507,-0.021167],[-0.0102339,-0.0443854,-0.0154948],[-0.107919,-0.0432293,-0.117417]],[[0.0375796,0.00997043,-0.0279653],[-0.0270247,0.0426467,0.0638202],[0.00974257,-0.11296,0.0160046],[-0.0405372,-0.0708788,-0.0476467],[0.0190936,-0.00412129,-0.00288155],[0.0675624,0.0393818,0.0153165],[-0.0421414,-0.0309877,0.0181165],[-0.0827598,-0.0469619,-0.0698043],[0.0332399,0.0816999,0.0399577],[0.0316177,-0.0292564,-0.0848793],[-0.105509,-0.0812385,-0.168458],[0.0751305,0.0838403,0.107745],[0.00270094,-0.0476564,-0.0327045],[0.0538209,-0.0436799,0.0693637],[-0.0778145,-0.0563825,-0.099796],[-0.0220092,0.0592851,0.0602795],[-0.0291499,-0.165037,-0.171115],[-0.0624423,-0.138161,-0.0438614],[-0.0162555,-0.0132502,-0.0487912],[-0.1272,-0.124427,-0.0748819],[-0.0517989,-0.0626782,0.0181277],[0.00387521,-0.00590048,0.0341558],[-0.00180807,-0.0865768,-0.0577716],[-0.0227588,-0.0669387,-0.0990134],[-0.00820547,-0.108925,0.0700555],[-0.103529,-0.124825,-0.0657699],[-0.130337,-0.063726,-0.0798781],[-0.154784,-0.0315583,0.020218],[0.0559984,0.0439314,0.131265],[0.0913094,0.0370815,0.0587439],[-0.032539,0.0276927,0.00396603],[0.00930243,-0.0212968,0.042701]],[[0.025515,0.0260646,-0.0321421],[-0.0893149,-0.104912,-0.0371331],[-0.00712083,0.0320569,-0.00777237],[-0.00848202,0.000142403,-0.00942149],[0.0884353,0.131394,0.097027],[-0.11041,-0.101852,-0.186942],[-0.0701847,-0.086205,-0.0746998],[-0.0549898,-0.0334653,-0.0593349],[-0.0393455,-0.088399,-0.0872034],[-0.00814181,-0.0656893,-0.0328059],[0.0144143,0.0105106,0.0193944],[-0.000293538,-0.00846922,-0.0485059],[-0.000149177,0.0571039,0.0883248],[-0.0347945,-0.0568335,0.00440619],[0.0294354,0.00210359,0.0236761],[-0.127234,-0.00691134,0.0408648],[0.0314002,0.0303432,0.0234056],[0.0453252,0.0736253,0.0990153],[0.11427,0.066605,0.0720264],[-0.0444023,-0.00064203,0.073555],[0.092545,0.0514607,0.0737057],[0.171537,0.180504,0.115074],[-0.0541489,-0.0637118,-0.0571436],[0.0325547,-0.0455118,-0.0381105],[0.00296609,-0.00210074,-0.0971054],[0.00862651,0.0414981,0.120854],[0.0518428,0.0414278,0.0247053],[0.0399113,0.0590251,0.0562402],[-0.00146903,0.0251338,0.0458905],[0.0328571,0.0107492,0.0567933],[-0.0336482,-0.0126699,-0.0741867],[-0.0438164,-0.0578464,-0.0937424]],[[-0.073601,-0.0540915,-0.0755927],[-0.081432,-0.0721334,-0.111495],[-0.0104161,0.0749454,0.0114433],[-0.0355616,-0.0358076,0.0591603],[0.0393922,0.00600499,0.00187598],[-0.0348602,-0.0413074,-0.128352],[-0.0532949,0.0230031,-0.0633577],[0.04816,-0.0143759,-0.0107729],[-0.0208679,0.0880589,0.0139004],[-0.171878,-0.0608762,-0.13957],[0.0756019,0.0790187,0.153936],[0.0112305,-0.0240616,-0.00497665],[-0.0240188,0.104051,0.0769599],[-0.102859,-0.056298,-0.141286],[-0.0250087,0.0153,0.0835124],[-0.0722692,-0.000320546,0.0726951],[0.0528812,0.00727602,0.175635],[0.119271,0.0518989,0.0746702],[0.056903,0.0588208,0.0793018],[0.0519089,0.0387838,0.0173391],[0.0960474,0.0473556,0.0337618],[0.0228965,0.0756168,0.106208],[0.0119364,0.0612684,0.00434596],[0.133481,0.0613203,0.169135],[0.0124075,-0.0875899,-0.0747695],[0.0600792,0.00992161,0.116911],[0.106022,0.0966882,0.0860657],[0.0979425,-0.0594739,0.0575556],[0.0531821,0.0863988,0.0608187],[-0.0606955,-0.0810379,-0.169012],[-0.0434015,-0.00371302,-0.0823169],[-0.0851642,-0.0719267,-0.0927849]],[[-0.0264261,-0.00326925,0.00247514],[0.0227168,0.0107485,0.0637024],[0.0149132,0.110934,0.0362284],[0.0233408,0.0179434,0.0100891],[-0.0127908,-0.0425355,-0.0757824],[0.0651906,0.0558141,0.105212],[0.0518855,0.0687667,0.108972],[0.0954605,0.0799939,0.0975718],[0.0551599,0.0109806,0.0407463],[-0.0970158,-0.0765848,-0.0824538],[-0.00102071,0.0190896,0.00946033],[-0.0826395,0.00538897,-0.0562812],[0.0529604,0.0138651,-0.058351],[0.00942607,-0.0681307,-0.00694866],[0.0878541,0.027904,0.0463013],[0.0655057,0.00572441,0.111643],[0.0853791,0.060343,0.041793],[0.01897,0.00361808,-0.0141],[-0.03677,-0.0262258,-0.0547989],[0.0455058,0.065538,-0.0194881],[-0.0998759,-0.0283649,-0.076345],[-0.121449,-0.0891246,-0.167988],[0.0569281,0.109694,0.147967],[0.0432401,0.0905009,0.0698197],[-0.015795,0.0947042,0.0945819],[-0.0310877,0.0479359,-0.0324471],[0.101061,0.081309,0.104096],[0.0890495,0.0552215,0.081298],[-0.0365817,-0.0876314,-0.0308249],[-0.0805208,-0.103581,-0.119521],[0.112611,0.0906771,0.0889532],[0.0616199,0.088516,0.035904]],[[0.156161,0.0645311,0.121531],[0.129757,0.0261004,0.0646622],[-0.0606316,-0.0796825,-0.0724342],[0.0107861,-1.36571e-05,0.0513963],[0.0152632,0.0288235,-0.0298621],[0.0370328,0.0492502,-0.0354659],[0.00546046,-0.0365551,-0.0325077],[-0.0618671,0.00671452,-0.0247133],[0.00117966,-0.0622066,-0.0047816],[0.0749202,0.0826352,0.10955],[-0.054382,-0.105238,-0.111237],[0.0525535,0.0287507,0.109903],[-0.0138135,-0.00575092,-0.0637672],[0.0949849,-0.00257528,0.0814235],[0.0631491,0.0640924,0.144182],[0.037808,-0.0895183,0.028083],[-0.10329,-0.0472178,-0.0148424],[-0.107112,-0.113086,-0.0913265],[0.0901569,0.0471529,0.00678833],[-0.123,-0.0174299,-0.0188051],[0.0292066,-0.0481352,0.0543205],[0.133878,0.0802695,0.0312166],[-0.0866593,-0.106827,-0.0415811],[-0.146513,-0.0653281,-0.0973937],[0.0496066,0.0616481,0.0870908],[-0.0586439,0.0211087,-0.00837744],[-0.139155,-0.052019,-0.086271],[0.0443957,-0.0193502,0.0553174],[0.0240897,-0.0103851,-0.0914188],[0.0598735,0.138615,0.0998346],[-0.0207376,-0.02451,-0.0580626],[-0.0650232,-0.00249122,-0.0119052]],[[-0.0100008,-0.0338825,-0.0307499],[0.120844,0.163963,0.122311],[-0.0115225,0.0310736,-0.0204092],[-0.0222017,-0.0611373,-0.113684],[0.016002,-0.102249,-0.160507],[-0.00837801,0.0489791,0.0506647],[0.0419064,0.0140942,0.00812023],[-0.0047688,0.0379993,0.0529572],[0.0805064,0.115619,0.182885],[-0.0404766,-0.0254922,-0.108128],[-0.0379951,-0.00810685,-0.087794],[0.0602616,0.145707,0.0682572],[-0.0703221,-0.0613049,-0.0546605],[0.0280152,0.011305,0.0678025],[-0.0886335,-0.0585908,-0.0256972],[0.109443,0.0128844,0.0883663],[-0.0581539,-0.0185117,-0.0799839],[-0.083612,-0.0238102,-0.0319896],[-0.0843755,-0.0684193,-0.0823129],[0.0187569,-0.0209828,-0.0157597],[-0.0771762,-0.0420257,0.00680264],[-0.146866,-0.101146,-0.0731157],[0.0379866,0.030902,0.0846874],[0.0194282,0.0384931,0.00987914],[0.0379419,-0.00613439,0.028761],[-0.00283228,-0.103984,-0.0159374],[-0.0292724,-0.0157291,-0.0152347],[-0.12381,0.0177104,-0.0932934],[0.0869101,0.012578,0.0367785],[-0.0333755,-0.0337484,0.0243279],[0.123497,0.0578966,0.0568313],[0.0519427,-0.0112935,0.0226614]],[[0.102825,0.0730564,0.220238],[0.05315,0.109364,0.0518891],[-0.0595923,-0.0599803,-0.0202688],[0.0599149,0.062327,0.0897342],[-0.024664,-0.0510506,-0.101206],[0.0734446,0.0534214,0.0455584],[0.0430148,-0.031027,0.0205781],[0.046568,-0.0467163,0.0191701],[0.023699,0.0372806,0.0985163],[0.0730238,0.0758861,0.114948],[-0.00501786,-0.0697576,-0.100171],[-0.0188388,0.0438211,0.0184913],[-0.0106082,-0.00163618,-0.130961],[0.120135,0.123249,0.129359],[0.127363,0.0739966,0.116901],[0.0189078,0.0458246,0.05466],[-0.0339813,-0.0795778,0.000712659],[-0.152377,-0.193256,-0.120574],[0.0585689,0.00143599,-0.0239291],[-0.00229104,0.00326895,-0.0594306],[-0.134622,-0.0548781,-0.0288305],[-0.0170968,-0.127576,-0.00133915],[0.0572458,-0.020042,0.016195],[-0.0536284,0.0188811,-0.0282215],[0.105367,-0.0188645,0.00406466],[-0.0446091,0.0244198,-0.0744831],[-0.104342,-0.062644,-0.0474092],[0.0862015,0.01075,0.0371495],[-0.106892,-0.0893066,-0.121674],[0.0191019,-0.0226742,0.0120084],[-0.0145577,-0.0812978,0.0375605],[0.102729,-0.0659336,0.0421728]],[[-0.13707,-0.0794913,-0.0484155],[-0.0242308,0.0682754,0.0554188],[-0.0140904,-0.0602356,0.0744234],[-0.0157689,-0.0764319,-0.133104],[-0.0181769,-0.0413577,-0.100264],[0.0270067,-0.0671199,0.0482429],[0.0347332,-0.0353934,-0.0296756],[-0.0681801,-0.0616615,0.0136943],[0.171116,0.0412087,0.0406814],[-0.0882327,-0.166132,-0.14386],[-0.0216223,0.0915767,0.051853],[0.0155452,0.0104413,-0.0051859],[-0.00776211,0.0409492,0.0700296],[0.034409,-0.0252684,-0.00865324],[-0.071464,-0.0693754,-0.134691],[0.0144054,-0.0344886,0.00946784],[-0.065232,0.0628592,-0.0201299],[0.0349577,-0.0110079,0.0842185],[0.0217951,-0.022972,0.0312878],[0.0682738,-0.0277868,-0.074717],[0.0156016,0.0365013,-0.00151476],[-0.0158512,-0.0339105,-0.0268952],[-0.0183851,0.00517636,0.0838296],[0.11687,0.0907103,0.0938492],[-0.143225,-0.0627195,-0.0180568],[-0.00335397,-0.105858,0.0137766],[0.0845012,0.0529178,0.0794101],[-0.0939,-0.118453,-0.0983074],[0.0916621,0.0810972,0.06286],[-0.0371975,-0.0552776,-0.0417465],[0.0160603,-0.0967109,-0.0301242],[-0.0521736,-0.00610855,-0.0490378]],[[-0.0255347,0.0384112,0.0492363],[-0.0250013,-0.0183599,0.0577941],[-0.0712802,-0.0646607,-0.0603326],[-0.0172434,-0.00227251,0.0558924],[0.134053,0.00383697,0.168144],[-0.0563143,-0.110569,-0.100177],[-0.123162,-0.134497,-0.121056],[-0.100991,-0.0733569,-0.107307],[0.0016429,-0.0589778,-0.0264023],[-0.0443627,-0.0873259,0.0232362],[-0.0211847,0.0328681,-0.0326743],[-0.0116925,0.0254411,-0.00473431],[0.0514174,0.117092,0.0555674],[0.0378729,-0.0470386,-0.011364],[0.062232,-0.0133591,0.0131529],[0.000605709,-0.0943303,-0.00115335],[0.0093585,-0.0804663,-0.0464778],[0.0202338,0.0198271,0.0472967],[0.0865259,0.0454054,0.0667233],[-0.0964817,-0.0729723,-0.0319432],[-0.0084439,0.0226026,0.047796],[0.122897,0.206075,0.140118],[-0.140866,-0.107773,-0.107339],[-0.0562289,-0.0449471,-0.0871826],[-0.0551279,0.000345981,-0.0629032],[-0.00528147,0.028451,0.00994327],[-0.0203224,-0.0223797,-0.075053],[0.120391,0.0766935,0.0100182],[-0.00121904,0.0356195,0.117526],[0.0656486,0.0956283,0.0344537],[-0.0784148,-0.029053,-0.129311],[-0.0675587,-0.0645314,0.010823]],[[0.0234667,-0.040278,-0.051291],[0.117794,0.0589007,0.162991],[0.031051,0.0552696,-0.0220924],[-0.0118693,-0.0223894,-0.0875352],[-0.0765655,-0.0307919,-0.0999828],[0.0628422,0.0323958,0.120832],[-0.0134932,0.0815375,0.0478914],[0.102434,0.0470314,0.105919],[0.0798667,0.134526,0.0721026],[-0.104362,-0.0512874,-0.100668],[0.0192008,-0.0544409,-0.0220935],[-0.0277232,0.0415783,-0.0133978],[0.0100679,-0.0645581,-0.0815891],[-0.0373591,-0.0246655,0.0240342],[0.075705,0.0335588,0.0666941],[0.0348053,0.00410681,0.0774592],[-0.0583953,-0.0605611,-0.0630501],[0.0073261,-0.00157554,0.0509388],[-0.0725122,-0.0245526,-0.0771857],[0.0510862,0.0154146,-0.0602165],[-0.111212,-0.0951288,-0.0571172],[-0.0907922,-0.136152,-0.0499515],[0.164773,0.146475,0.106699],[0.0798884,0.0581065,0.107217],[-0.0659729,0.112143,-0.013726],[-0.0030963,-0.0522151,-0.0952283],[0.0621781,0.0853041,0.0118984],[-0.00574777,0.106566,-0.0333833],[-0.046547,-0.00694623,0.00679106],[-0.0644433,-0.044169,-0.0404379],[0.063956,0.120958,0.0834247],[0.00612786,0.0896286,-0.0232856]],[[0.0999894,-0.00834667,0.0644113],[0.0962499,0.0418039,0.0542142],[-0.014116,0.130241,-0.00278893],[0.0335096,-0.00974003,0.0179507],[0.0235262,-0.00361339,-0.103747],[0.110896,0.0751528,0.0379641],[-0.00163386,0.0386046,0.0715046],[0.048772,0.101965,0.068987],[0.0303859,0.0340825,0.0648087],[-0.0407517,-0.0124234,-0.0302542],[0.0141903,0.0137223,-0.0317752],[-0.0621683,0.0478055,-0.0108633],[-0.0904527,0.01096,-0.117257],[-0.00046674,0.0788572,0.0494409],[0.0872716,0.0147769,0.0892733],[0.0508826,0.0521605,0.0281907],[0.00515222,0.0358006,0.0495084],[-0.0959262,-0.0875677,-0.0873041],[-0.0337972,-0.0814627,-0.0620302],[0.0322635,0.0439996,-0.0253316],[-0.0712223,-0.0743456,-0.0878236],[-0.137945,-0.209383,-0.118017],[0.0624305,0.0500011,0.104567],[-0.000900484,0.0559235,-0.0158136],[0.0514056,0.112946,0.107767],[0.010816,-0.0225432,-0.056062],[-0.00404555,0.0298049,-0.0276798],[0.0439378,0.0972656,-0.0177175],[-0.12789,-0.0589165,-0.0734619],[-0.108617,-0.0159376,-0.0373475],[0.0872693,0.100791,0.0816055],[0.152627,0.054739,0.0887125]],[[0.0997866,0.0622172,0.0876031],[0.0320543,-0.00491813,0.0284369],[-0.0781967,-0.142017,-0.0286428],[0.0162018,0.00846548,0.0484912],[-0.0209884,-0.0512874,0.0824587],[0.0164867,-0.0370917,-0.044678],[-0.0355441,-0.0323675,-0.0599404],[-0.0223986,-0.0227882,-0.0929354],[0.0277908,-0.0814665,0.00064501],[0.151772,0.0470486,0.141619],[-0.0876515,-0.075201,-0.140429],[0.0658269,0.107965,0.0715422],[-0.0431509,-0.0436868,-0.105782],[0.041656,-0.0453834,0.0121455],[0.0771267,0.0894611,0.1074],[-0.079273,-0.00764539,0.023037],[-0.00234564,-0.0663762,-0.0843469],[-0.0804624,-0.0900358,-0.0367043],[0.101382,0.0326754,0.0397492],[-0.0981106,-0.00754476,-0.0335968],[0.0327072,0.0232151,0.074237],[0.0398525,0.0295869,0.063569],[-0.11112,-0.0549704,-0.0808735],[-0.151711,-0.11636,-0.109027],[0.0442772,0.0644749,0.0851744],[-0.0200936,-0.0120636,0.0124944],[-0.0835095,-0.10451,-0.0353951],[0.0137021,-0.0235057,0.0697241],[0.051867,-0.0609937,-0.0487179],[0.0489692,0.117094,0.133606],[-0.0356172,-0.0507562,-0.04187],[0.00524045,-0.0835853,-0.0599326]],[[0.0633584,-0.0214076,0.0158025],[0.0885633,0.0923338,0.0307244],[-0.0279151,-0.0387669,-0.0374858],[-0.0457214,-0.0470839,-0.0411806],[-0.052592,0.0150813,-0.000485634],[0.0763504,0.0179714,0.0884927],[-0.0771472,0.0202085,-0.0660433],[-0.0721332,-0.0253541,-0.0698873],[0.0426801,0.0211371,0.0287474],[-0.0230854,-0.038405,-0.0413589],[-0.0828759,-0.0659911,-0.117013],[0.083386,0.127749,0.083695],[-0.0767107,-0.0445473,-0.100665],[0.0645406,-0.143515,0.0703192],[-0.0920508,-0.127757,-0.101486],[0.0495051,0.0601925,0.131388],[-0.0380814,-0.065876,-0.0747718],[-0.087528,-0.107713,-0.0354486],[-0.0562589,-0.0804726,-0.023375],[-0.0261489,-0.0433577,-0.10558],[0.0524649,-0.0661842,-0.00455404],[0.027807,-0.0406588,0.0127152],[-0.0179428,-0.124333,-0.0349252],[-0.0688236,-0.0389437,-0.100994],[-0.0469694,-0.0484177,-0.0257177],[-0.121408,-0.169068,-0.11709],[-0.113412,-0.109062,-0.0579517],[-0.161794,-0.0126477,-0.0899495],[0.0578312,0.022488,0.134645],[0.0139791,0.0419681,0.0413332],[-0.0317237,-0.006426,0.0529879],[0.0401648,-0.0468468,-0.0900078]],[[-0.061183,0.020491,-0.111833],[-0.0614438,-0.0751525,-0.0691995],[0.0401577,-0.0357396,-0.0210611],[-0.0456993,0.0134915,0.0458213],[0.0810968,0.0823544,0.102551],[-0.11959,-0.0826982,-0.145886],[-0.0699605,-0.0625401,-0.0709435],[-0.0783049,0.00862614,-0.0846662],[-0.0816253,-0.0274422,-0.0629127],[-0.067504,-0.0467184,-0.0498763],[0.0291719,0.0616413,0.0225224],[-0.0467787,-0.0112732,-0.0594932],[0.0822802,0.0298616,0.0797338],[0.00618782,-0.0315062,-0.0171299],[0.0158841,0.0247872,0.0294614],[-0.0291351,-0.0676207,-0.0463232],[0.00172438,0.0951086,0.105353],[0.0917117,0.0735609,0.085642],[0.0843982,0.0993109,0.0718206],[0.017885,0.0371269,0.0539489],[0.0809903,0.0498974,0.100299],[0.113376,0.200617,0.134561],[-0.0812789,-0.0794818,-0.0799235],[0.0335907,0.0085892,0.0234875],[0.00282277,-0.102015,-0.0677214],[0.0762158,0.0966695,0.058909],[0.0952574,0.0268055,-0.00145534],[0.104017,0.0118844,-0.0377839],[0.0618548,0.0183253,0.0359217],[-0.00919141,0.0270907,0.00231649],[-0.0277469,-0.029323,-0.129425],[-0.105009,-0.000346709,0.0248454]],[[0.0880109,0.0273293,0.0873118],[-0.0714081,-0.0507123,0.00210638],[-0.0929767,-0.0691816,-0.0795534],[-0.0394713,0.0383215,0.0224817],[0.0449065,0.0210281,0.137149],[0.0312959,-0.101654,-0.0907789],[-0.111356,-0.0796651,-0.0600206],[-0.0324492,-0.0877177,-0.0666628],[-0.018422,-0.0151057,-0.0575604],[0.0608221,0.0616887,-0.0220923],[-0.0720216,-0.0987188,-0.106865],[0.0656511,0.0609008,0.0490648],[-0.0274701,0.033261,-0.010717],[0.0272184,-0.0292776,0.0755671],[0.0690286,0.0975066,0.106515],[-0.0113551,0.00532038,-0.039164],[-0.0369481,-0.053763,-0.104913],[-0.0348819,-0.0180631,0.0200012],[0.0933323,0.052772,0.0495648],[-0.07376,-0.0521718,-0.0118052],[0.0468237,-0.00630217,0.092027],[0.171822,0.0786315,0.181698],[-0.0619569,-0.0654335,-0.0799838],[-0.107234,-0.0962006,-0.0725578],[-0.018413,0.0103767,0.0767992],[-0.0529435,-0.0061837,0.0213632],[-0.0724348,0.0256354,-0.108754],[0.0766997,-0.0114497,0.0733383],[-0.0178252,-0.0302707,0.0438114],[0.0896583,0.0862471,0.13387],[-0.062522,-0.00962177,-0.0803362],[-0.0452422,-0.126625,-0.0337192]],[[0.00397187,-0.0067768,0.0163116],[-0.108044,-0.126986,-0.0534506],[-0.122724,-0.11859,-0.0143635],[-0.00880525,0.0168988,0.0407569],[0.042051,0.105131,0.16354],[-0.0786689,-0.0516063,-0.117303],[-0.0676271,-0.0351932,-0.0291544],[0.00844533,-0.0079026,-0.0191317],[-0.126827,-0.0497814,-0.0517308],[0.0540792,0.0355629,0.0217257],[0.0153943,-0.0436551,-0.0489466],[0.0104207,-0.00035855,-0.00316549],[-0.0246048,0.0563599,0.0022881],[-0.00496069,-0.0313796,-0.0308857],[0.133702,0.121263,0.0951465],[-0.121999,-0.00670464,-0.0308617],[0.00985829,-0.0148515,0.0300653],[-0.00820663,0.00867722,0.0377316],[0.107907,0.0823582,0.104518],[-0.0278655,-0.0223852,-0.030156],[0.0481891,0.0935681,0.0549224],[0.157556,0.0801904,0.194812],[-0.00423778,-0.00358263,-0.0121736],[-0.0602965,-0.0376973,-0.0531001],[-0.0116521,0.0158763,0.0553813],[0.0452861,0.0763059,0.105893],[0.0320212,-0.00605874,-0.0449793],[0.0943222,0.0209696,0.0673412],[-0.00882845,-0.0313052,-0.0506404],[0.0790035,0.0703898,0.069454],[-0.0890329,-0.0183187,-0.106955],[-0.0594662,-0.0386888,-0.0269752]],[[-0.0756396,-0.020519,-0.0420516],[-0.0344515,-0.0895334,-0.001263],[0.00456771,0.0623051,0.0279668],[-0.0202225,-0.0364079,-0.0279309],[0.0219356,-0.0234542,0.0639824],[-0.0859446,-0.0829064,-0.148912],[-0.0271967,-0.0146144,-0.0830738],[-0.0721431,0.00292933,-0.0458466],[-0.032828,-0.0745211,-0.00286233],[-0.0438096,-0.0803494,-0.0485792],[0.120133,0.105956,0.0921341],[-0.0435276,-0.0237942,-0.0292758],[0.0568035,0.0639158,0.110852],[-0.0275687,-0.0338416,-0.0645699],[-0.122144,-0.0670221,-0.0566738],[-0.0828626,-0.00684909,-0.0462585],[-0.0176466,0.0147084,0.135167],[0.108051,0.0866684,0.106073],[0.0623954,0.0345892,0.0522769],[0.0631373,-0.0274705,-0.005111],[0.0460117,0.0319031,0.0790986],[0.0626843,0.121407,0.109931],[-0.0424877,-0.00912986,-0.00606042],[0.0661748,0.0572463,0.0742867],[-0.087218,-0.0930143,-0.145805],[0.098538,0.0764053,0.0303484],[0.13269,0.0256499,0.0953439],[0.0206858,0.00631251,0.0170791],[0.0657121,0.0641555,0.0641044],[-0.0326574,-0.00496064,-0.0777358],[-0.0250944,-0.0271723,-0.122971],[-0.105544,-0.0226184,0.0212703]],[[-0.0516621,-0.11603,-0.0380599],[-0.0997853,-0.00642136,-0.0425113],[0.0842399,0.0304814,0.0403656],[-0.016972,-0.000300867,-0.0110649],[0.0568248,-0.0176894,0.0454508],[-0.072389,-0.0775757,-0.110567],[-0.0164761,-0.0140541,-0.086715],[0.0132247,0.0155234,-0.0151029],[0.0520456,0.0054583,-0.0195629],[-0.0933572,-0.0536567,-0.10104],[0.0503394,0.117999,0.0962844],[-0.00115341,-0.0210395,0.0114482],[0.0985692,-0.00428195,0.065784],[-0.0872505,-0.033595,0.0290245],[-0.114874,-0.0124578,0.00260552],[-0.0987137,0.0499343,-0.0679003],[0.0591345,0.0634489,0.0561074],[0.133486,0.118437,0.0613706],[0.0809382,0.0276672,0.102373],[0.0254888,0.0571319,-0.0264285],[0.101714,-0.0350478,0.0847185],[0.0434271,0.0691788,0.0731918],[-0.0180425,0.051462,0.0213208],[0.160511,0.109176,0.148324],[-0.100407,-0.0439575,-0.0317716],[0.0144374,0.0683328,0.0523792],[0.135943,0.0401233,0.11783],[0.0719458,0.0137022,-0.0766947],[0.0451545,0.111924,0.016467],[-0.0968313,-0.0886106,-0.0729416],[0.0346849,-0.0407022,-0.109296],[-0.0526091,-0.0546355,-0.0123889]],[[0.0209304,-0.0463369,0.018767],[0.0763444,0.0797402,0.150328],[0.0265469,0.0247007,-0.0714525],[0.035349,-0.0547499,-0.0122667],[-0.0814773,-0.0855081,-0.124987],[0.0882515,0.0187261,0.0463143],[0.0723206,0.0238938,0.0232494],[0.0884293,0.0284118,0.106628],[0.0338459,0.119965,0.141674],[-0.0835105,-0.119216,-0.0198656],[0.0236143,-0.015507,0.0532154],[-0.00196394,0.0582801,-0.0131153],[0.01598,-0.0339428,-0.0846032],[-0.0250738,0.0654791,0.0927921],[-0.0452684,0.0798304,0.0104738],[0.088327,0.060258,0.0141042],[-0.0665761,-0.0085404,-0.11255],[0.0435268,-0.00312063,-0.0505315],[-0.050609,-0.0225701,-0.0263443],[-0.00802691,0.0148372,-0.0129194],[-0.108035,-0.087667,-0.00984725],[-0.160715,-0.0931807,-0.0595031],[0.149932,0.122927,0.168484],[0.0676181,0.125517,0.065849],[-0.0169809,0.0418795,0.0405117],[0.0390798,-0.0306003,0.0034328],[0.103585,0.12811,0.0450749],[0.0604596,-0.0206594,-0.0201385],[-0.0645306,0.0238872,-0.0641462],[-0.077587,-0.07499,-0.0618046],[0.134784,0.0567993,0.0955133],[-0.0523149,-0.0179018,0.0519877]],[[0.0807858,-0.0150407,0.0730927],[-0.026927,-0.0309328,0.0196302],[0.0439695,-0.000740542,0.101672],[0.00207888,-0.0136346,0.0221457],[-0.0858508,0.039695,-0.102286],[0.0762554,0.0581205,0.114615],[0.0627774,0.0649919,0.0645936],[0.134665,0.0848612,0.138831],[0.0454321,0.0586687,0.0781514],[-0.0587553,-0.119499,-0.0848826],[0.0268436,0.00829606,-0.000852195],[-0.0158337,-0.103738,-0.0517968],[0.0229238,0.07183,-0.0284142],[0.0321027,0.0496772,0.00685041],[0.0437174,0.112459,0.12075],[0.0387045,0.0810734,0.0598694],[0.0275756,0.046869,-0.0375583],[0.0264533,0.00508258,-0.0357449],[0.0292992,-0.00276444,-0.0181716],[-0.00443578,0.0783028,0.0595011],[-0.101325,-0.0336424,-0.0328924],[-0.139551,-0.0302743,-0.0763244],[0.173985,0.0848847,0.166214],[0.0590465,0.0379312,0.100327],[0.023868,0.0397666,0.0627615],[0.0238731,0.0895294,-0.0733626],[0.0324387,0.0338148,0.0642227],[0.108027,0.0530077,0.113003],[-0.0345086,-0.0139549,-0.0597896],[-0.104585,-0.061428,-0.095861],[0.0231275,0.0410912,0.0820262],[0.0386461,0.00354274,0.0972117]],[[-0.0423766,-0.0641158,0.0246278],[0.0799639,-0.003558,0.0711423],[0.0771968,0.0994917,0.0375831],[0.0241163,0.0239375,-0.00285503],[-0.0769727,-0.0368692,-0.103805],[0.0906842,0.0308764,0.104323],[0.0919282,0.0740298,0.0414338],[0.0855185,0.0706719,0.100237],[0.00986859,-0.0398425,0.105985],[-0.0744207,-0.0852615,-0.0792003],[0.0389076,0.0210924,0.00413177],[-0.021496,-0.0101319,-0.00263902],[0.0182137,-0.015449,-0.0856335],[-0.0630137,0.0048716,0.0356613],[0.0910184,0.0572138,0.0108188],[0.0209936,0.0901071,0.0439494],[0.084939,0.0192653,0.0203104],[-0.0422749,-0.00986271,-0.0364146],[-0.0295656,-0.0152416,-0.061412],[0.0517315,0.0732101,0.018476],[-0.115283,-0.0752029,-0.0817756],[-0.142744,-0.0624059,-0.105758],[0.0625517,0.116888,0.127504],[0.0183786,0.0855851,0.0489111],[0.0126374,0.0651638,0.0716821],[0.0356187,0.0675034,0.00527655],[0.0393779,0.0553212,0.0774311],[0.0740983,0.0247614,0.0450655],[-0.0697931,-0.0880264,-0.0504714],[-0.145389,-0.0760041,-0.125696],[0.123484,0.0877915,0.0746411],[0.0925495,0.0620682,0.0502746]],[[-0.0732097,0.000763902,-0.0711688],[-0.0925243,-0.0434103,-0.050481],[-0.0312105,0.059363,-0.0144709],[-0.0693399,-0.0261611,-0.0338442],[0.11246,-0.0098437,0.0618578],[-0.0430752,-0.138419,-0.112215],[-0.035602,-0.00648959,-0.0383476],[-0.0613948,-0.0272126,-0.00762882],[0.00911614,-0.0711745,-0.034266],[-0.0291674,-0.035295,-0.0661361],[0.0769587,0.0800569,0.0992123],[-0.0385109,-0.0355391,-0.0117039],[-0.000417658,0.0605146,0.0715494],[-0.0836274,-0.0145505,-0.095344],[-0.0825761,-0.0185693,0.0212416],[-0.0111788,0.0318675,-0.0374927],[-0.0558991,0.0487486,0.0898259],[0.13428,0.073275,0.0515736],[0.106593,0.0618862,0.0774402],[0.0777067,0.005995,0.0353082],[0.0426851,-0.00661213,0.0856903],[0.146749,0.0307267,0.154277],[-0.0285048,-0.0284178,-0.0124742],[0.0357093,0.0820787,0.0123776],[-0.11216,-0.0507778,-0.120888],[0.0858802,0.0473336,0.0535753],[0.138383,0.0182165,0.0229713],[0.0625807,-0.0279681,-0.0528773],[0.0203639,0.0666242,0.0610657],[-0.0419223,-0.0181749,-0.00781139],[-0.0132059,-0.0578767,-0.0732223],[-0.144698,0.0355836,-0.115556]],[[-0.0121505,-0.0497803,-0.126226],[-0.0208529,0.027796,0.0381023],[0.0771625,0.0771588,0.0568352],[0.0390703,-0.012103,-0.0241375],[-0.0287447,-0.110832,-0.132755],[0.054302,0.0968309,0.016205],[0.0511408,0.0840102,0.0320793],[0.0615899,0.096012,0.120088],[0.0906821,0.0230551,0.0675198],[-0.21473,-0.136404,-0.0206977],[0.0794651,0.0328477,0.0212705],[0.00327034,-0.0165821,0.00194919],[0.00794393,0.0169652,-0.0431737],[-0.054914,-0.0211275,-0.0426202],[0.101455,0.0485412,0.074244],[0.0460107,-0.000777163,0.11254],[0.0798633,0.0132015,0.028051],[0.0861362,0.0325746,-0.0285718],[-0.00101933,-0.0016564,-0.0394727],[0.0495134,0.0711011,0.0314457],[-0.0654345,-0.0479169,0.00759834],[-0.164266,-0.113801,-0.0143058],[0.0480647,0.105891,0.125699],[0.103847,0.0986101,0.128794],[0.0647619,-0.0400335,0.0365054],[0.00928406,-0.00665916,-0.0320192],[0.0695321,0.0607807,0.0955835],[0.0621395,0.0586817,0.0271281],[0.00983816,0.0157663,0.00586577],[-0.183526,-0.135621,-0.107455],[0.0705869,0.0453651,0.0297712],[-0.0281871,-0.0210981,0.0715255]],[[-0.0361458,-0.0735631,-0.0438019],[0.00437171,0.0674404,0.0514619],[0.0382432,0.110646,0.0313509],[0.00816899,-0.045592,-0.00483391],[-0.059327,-0.0318763,-0.157358],[0.060688,0.0806712,0.11733],[0.0640323,0.0701581,0.0374844],[0.0240745,0.111269,0.107549],[0.0738923,0.0750952,0.0902817],[-0.161561,-0.123387,-0.0769148],[0.0654221,0.00705026,0.0135952],[0.0210857,-0.0188231,-0.0104331],[-0.024595,0.0130603,-0.0654118],[-0.00570676,0.0334718,0.0281081],[0.0734118,0.0723476,0.0455588],[0.1162,-0.00181301,0.0621128],[0.0414603,0.00585511,-0.034565],[0.0302425,0.0164697,-0.0378819],[-0.0528895,-0.0436934,-0.000204461],[0.0417564,0.0636635,-0.0182047],[-0.112879,-0.0391348,0.00785378],[-0.175576,-0.0715131,-0.0857843],[0.07848,0.0833418,0.15778],[0.0528212,0.11598,0.0427045],[0.0755376,-0.0059227,0.0836634],[0.0460676,-0.0374521,-0.0416768],[0.0331392,0.0608222,0.0866302],[0.0388084,0.0624944,-0.0209871],[-0.026454,0.00851928,-0.065418],[-0.15088,-0.0856095,-0.0912116],[0.143496,0.0383106,0.0335337],[0.0326034,0.0192441,0.066604]],[[0.152599,0.0481152,0.169646],[0.0452415,0.0630475,0.037482],[-0.163797,-0.067041,-0.0434001],[0.0632977,-8.48984e-05,0.0933224],[-0.0116486,-0.0149717,-0.0052057],[0.0522137,-0.00259808,0.014567],[0.00532954,-0.0391821,-0.051355],[-0.0355789,-0.0648147,-0.0567282],[-0.0115365,0.0276199,-0.0560881],[0.0524574,0.110662,0.124811],[-0.0430322,-0.0922564,-0.141729],[0.0408448,0.056905,0.0897516],[-0.0375313,-0.0431503,-0.0816722],[0.158611,0.0138848,0.132364],[0.101504,-0.00327016,0.0544602],[-0.0377774,0.0093951,0.0145627],[-0.0649265,-0.0818454,-0.0503172],[-0.156327,-0.123014,-0.119826],[0.034697,0.00453735,-0.0200628],[-0.0205942,-0.0489431,-0.00625954],[-0.0262494,-0.0659522,0.00229981],[0.0342598,0.0369454,-0.0307762],[-0.0267617,-0.120317,-0.0626384],[-0.108,-0.0509814,-0.109685],[-0.0227279,-0.0499457,0.059166],[-0.00720128,-0.0451816,0.0261855],[-0.139867,-0.130354,-0.0133215],[0.0608226,-0.00312276,0.0883001],[-0.0219085,-0.0376381,-0.122519],[0.0736364,0.105989,0.103328],[-0.0346238,-0.000571003,0.00946323],[0.0762637,-0.124118,0.00506158]],[[-0.0887156,0.0136416,-0.08762],[-0.0616769,-0.111197,-0.0932152],[-0.00332225,0.0320322,0.0211921],[-0.0291951,0.010889,0.0863029],[0.133171,0.103656,0.207159],[-0.0388032,-0.0412542,-0.0680463],[-0.0221737,-0.0427667,-0.0509953],[0.0569875,0.0359155,0.0095836],[-0.0160288,-0.0558866,-0.0384295],[-0.0243175,-0.02303,0.0291744],[0.0696912,0.0651616,0.0557555],[-0.0618079,-0.0971438,-0.0191518],[0.00308335,0.0583744,0.00636706],[-0.00204669,0.0321093,-0.0303196],[0.0759419,0.0281965,0.0581486],[-0.0398217,-0.0263377,0.0097153],[0.0927102,0.117302,0.0849107],[0.0729251,0.0935384,0.0644691],[0.0740375,0.0409097,0.0752496],[0.0664287,-0.0105942,-0.000587882],[0.0580117,0.0794626,-0.0108559],[0.0484211,0.0448529,0.0597792],[-0.00375486,0.0119882,0.0499166],[0.0591677,0.0555483,0.0109564],[-0.0221574,0.0159065,-0.00395517],[0.0496609,0.114243,0.00248842],[0.120008,0.106277,0.128913],[0.123555,0.0291967,0.0272495],[-0.0478248,0.00945347,-0.0209068],[-0.0196701,-0.0177179,-0.0345986],[-0.0505184,-0.0411334,-0.151411],[-0.00918321,0.0905699,0.0828256]],[[0.0656106,0.0965731,0.136855],[0.000557842,-0.00324543,-0.0128],[0.00441144,0.0375998,0.0274343],[0.0876541,0.00324364,0.0830818],[-0.00202818,-0.0488633,-0.0751162],[0.145778,0.115982,0.0402078],[0.0573764,0.0241737,0.0918569],[0.0870639,0.0422034,0.114978],[0.049275,0.0543807,0.0110699],[0.0156633,0.0125393,0.0219635],[-0.0145053,-0.018159,-0.0257706],[-0.0637723,0.00810654,-0.0241689],[0.0313211,-0.0577773,-0.0208857],[0.0466664,0.107826,0.0968747],[0.137257,0.126979,0.168006],[0.0605886,0.00623937,0.0479803],[-0.00541652,0.0536324,0.0622097],[-0.0852176,-0.0499022,-0.0750411],[-0.0157514,0.00329902,-0.049786],[-0.0203835,0.036614,-0.000883475],[-0.0719255,-0.0518896,-0.00640701],[-0.0956779,-0.166802,-0.152079],[0.0758005,0.0851302,0.105178],[-0.0104272,0.017207,0.0391987],[0.0475342,0.117246,0.110268],[-0.0342354,0.0467095,-0.0765991],[-0.0546593,-0.0324224,0.00242063],[0.164984,0.0512362,0.0303044],[-0.0609222,-0.0874813,-0.0558402],[-0.0574421,-0.0393955,-0.0797693],[0.0148413,-0.0264282,-0.00330501],[0.10716,0.0595346,0.0841731]],[[-0.00739827,0.0445689,-0.0632085],[0.0336842,0.0441692,0.0731197],[0.0542849,0.0912757,0.0703225],[0.030279,0.0307709,0.0226544],[-0.00784014,-0.037708,-0.105881],[0.106735,0.074881,0.0702045],[0.0698273,0.04641,0.06181],[0.07976,0.0528058,0.0797427],[0.0499685,0.0301968,-0.0268585],[-0.132006,-0.0848217,0.0345989],[0.0307763,0.018136,0.0159916],[-0.0805904,-0.0209051,-0.0534736],[0.0837676,-0.0440285,0.0346452],[0.0134787,-0.0314225,-0.0261079],[0.091407,0.0483709,0.0116358],[0.115733,-0.0145969,0.0898502],[0.04585,0.0368274,0.0262097],[0.0480068,-0.0117006,0.00182508],[-0.0380356,0.00831403,-0.0796378],[0.0932031,0.0562468,0.0415934],[-0.0815189,-0.0140729,-0.0151297],[-0.103138,-0.00237448,-0.0688708],[0.0866154,0.108531,0.0776429],[0.063321,0.101558,0.0568613],[-0.0311067,0.0381536,0.0150215],[-0.0351238,-0.00403974,0.0156671],[0.0765212,0.0866802,0.108096],[0.161571,0.0689327,0.0482965],[-0.0855814,-0.0812634,-0.0559171],[-0.122451,-0.129916,-0.0599671],[0.0568143,0.0580363,0.0690299],[0.0447734,0.079555,0.0609958]],[[0.114561,0.0860658,0.115213],[0.0544897,0.0140197,-0.0069661],[0.0234415,0.0200556,0.012422],[0.0635768,0.00301022,0.0705454],[0.00568128,0.0135464,-0.00440486],[0.127466,0.0669389,0.0977819],[0.0249266,0.0689723,0.0838129],[0.103853,0.0774383,0.0642555],[0.0678371,0.0130277,-0.00741499],[0.0499886,0.0824721,0.0130585],[-0.012517,-0.030476,-0.0503965],[-0.0697167,-0.0130625,-0.023692],[-0.0245509,0.0205304,-0.0774661],[0.164487,0.0467921,0.060696],[0.150657,0.111411,0.166791],[0.0572004,0.0295525,0.0286212],[-0.00309785,0.034606,0.111232],[-0.0912822,-0.0907204,-0.0555775],[0.0116325,-0.00707294,-0.0565758],[-0.0150183,-0.014767,-0.00360781],[-0.127677,0.0061542,-0.0188443],[-0.0764371,-0.071644,-0.100669],[0.053033,0.0600537,0.056692],[0.0145164,0.0407727,-0.00931244],[0.0282003,0.0016467,0.145719],[-0.0473452,0.00922451,0.0467933],[-0.0980997,-0.0289524,-0.039618],[0.152423,0.103327,0.100454],[-0.0764875,-0.0765811,-0.140688],[-0.0152728,-0.0940927,-0.0233808],[-0.0154573,0.0152339,0.0208056],[0.160079,0.0768122,0.102896]],[[-0.00273312,0.0551398,-0.0545469],[-0.0402954,-0.119963,-0.0780151],[-0.0224676,-0.0784472,-0.0637559],[-0.00895944,0.0277238,0.0500739],[0.0913406,0.0629207,0.168052],[-0.112648,-0.101142,-0.131001],[-0.0456364,-0.0426103,-0.0325492],[-0.0136128,0.00732975,-0.0560354],[-0.0791293,-0.020011,-0.0815991],[0.0680141,0.0939036,0.0802882],[-0.0198591,-0.0373247,-0.035391],[-0.0265394,-0.0055118,-0.00783355],[0.0136092,0.124017,0.0758121],[-0.117348,-0.0709022,-0.0494845],[0.0891917,0.0878355,0.0748094],[-0.0868404,-0.018762,-0.00474689],[0.0492399,0.0599295,0.00326709],[-0.00428854,0.0555545,0.0612492],[0.132229,0.0807318,0.0862753],[-0.0554935,-0.0186827,-0.0382605],[0.0897739,0.0749259,0.114496],[0.170213,0.166347,0.147304],[-0.0452699,-0.0192077,-0.00832218],[-0.0373729,-0.00868029,-0.00808608],[0.113353,-0.0561061,-0.0275656],[-0.00456038,0.135163,0.0575068],[0.0663172,0.0122759,-0.0117972],[0.12307,0.0609184,0.0770862],[-0.0146446,0.017547,-0.0600196],[0.0466402,0.0688459,0.0279799],[-0.0430481,-0.021783,-0.0885365],[-0.0747283,-0.0810981,0.00800595]],[[0.142036,0.0989423,0.149771],[0.0217761,0.022088,0.0531543],[-0.095945,-0.0524716,-0.0783532],[0.0423406,0.029988,0.099358],[-0.0160608,0.00859484,0.0618345],[-0.00798514,0.0500788,-0.0747391],[-0.0113691,-0.0614258,-0.0238293],[-0.0103027,-0.0149612,-0.0586088],[0.00666139,-0.0278321,-0.0134154],[0.172428,0.0114801,0.127397],[-0.0745905,-0.0688783,-0.111971],[-0.0257348,0.0780277,0.0983719],[0.0213354,0.0288369,-0.107584],[0.0643621,0.0127501,0.111615],[0.08074,0.062743,0.134446],[-0.0798063,0.0170199,-0.0496034],[0.00446267,-0.0847851,-0.0327019],[-0.110212,-0.0872663,-0.0547313],[0.090168,0.0465791,0.0487402],[-0.12058,-0.0309662,-0.0555382],[0.0172143,-0.0134033,0.037148],[0.069494,0.0424011,0.031624],[-0.0352678,-0.0972453,-0.0727458],[-0.102971,-0.0853642,-0.0542472],[0.0344238,0.0694377,0.118335],[-0.0890488,-0.00208806,-0.0328166],[-0.111611,-0.0905752,-0.0438022],[0.0243605,0.0391544,0.005979],[0.00712763,-0.069767,-0.0849283],[0.0960335,0.0745612,0.0868589],[-0.0486202,-0.0061831,-0.0485831],[-0.00499793,-0.0883903,-0.0251485]],[[0.149124,0.0529777,0.15044],[0.0506727,0.0954196,-0.0324947],[-0.115623,-0.0231621,-0.0572633],[0.031752,-0.00681153,0.0856155],[-0.0373189,-0.0307932,-0.036461],[0.0864524,0.0380182,0.0782377],[-0.00101897,-0.0485181,-0.0588227],[-0.0527905,-0.0125073,-0.0462691],[0.046652,0.0607322,-0.0540518],[0.155012,0.0654386,0.0548615],[-0.0746345,-0.117173,-0.148402],[-0.0156319,0.0714968,0.0698408],[-0.042072,-0.0400476,-0.124003],[0.0348063,0.0714294,0.1879],[0.0879871,0.0672135,0.0649045],[0.0828589,-0.063252,0.027885],[-0.0285633,-0.0504254,-0.0662331],[-0.163029,-0.142181,-0.0875863],[0.00837546,0.0581273,-0.00849194],[-0.0222456,-0.0654629,-0.0213674],[-0.0320975,-0.0464012,-0.0188869],[-0.0302906,-0.0669029,0.0594361],[0.0236817,-0.0787439,-0.0275853],[-0.112596,-0.0345745,-0.0652369],[0.0848492,-0.0422123,0.0325623],[-0.0298496,-0.0838728,-0.0325925],[-0.0878522,-0.0559615,0.0241113],[-0.0256509,0.000572776,0.0229408],[-0.0328694,-0.0870295,-0.13298],[0.107343,0.0501731,0.0809871],[-0.00400102,-0.00110876,0.0288607],[0.00201661,-0.0438203,0.0441074]],[[-0.0878542,0.0566551,-0.0608962],[-0.0973562,-0.0964099,-0.0800455],[-0.0486287,0.0255895,0.0536779],[0.00260099,0.0273962,0.0505182],[0.0774841,0.159544,0.158324],[0.0169039,-0.0442609,-0.0187855],[0.0399571,0.0314967,-0.0184083],[0.0739922,0.0380798,0.0876873],[-0.0297957,-0.0589502,-0.0829245],[-0.0232111,0.0279922,-0.047952],[0.0990793,0.0568547,0.0534883],[-0.0627653,-0.124923,-0.0375404],[0.0237263,0.0601378,0.00969569],[-0.020728,0.0423889,-0.0674962],[0.0735061,0.0812879,0.100198],[-0.0176565,0.0154253,-0.0160977],[0.129504,0.0373991,0.0791037],[0.0616971,0.0701009,0.0708217],[0.0277026,0.101506,0.0955834],[0.0534796,0.0365997,-0.00990905],[0.0428077,0.0601517,0.0102221],[0.0614506,0.0162173,0.046196],[0.0478806,0.0472639,0.0314541],[0.0520611,0.0227493,0.0233871],[0.0332709,0.0240604,0.0510375],[-0.0319997,0.126357,0.0882238],[0.0258463,0.0754946,0.119974],[0.100052,0.0456966,0.0521004],[-0.0451833,-0.0783089,-0.0413487],[-0.0546788,0.0166899,-0.091458],[-0.0509776,-0.0463079,-0.102563],[0.00332197,0.00875961,0.0593476]],[[0.0315294,-0.0129342,0.0467972],[-0.0407226,-0.108978,-0.0538052],[-0.0867473,-0.018322,-0.0518863],[-0.0401565,0.0545242,0.0661028],[0.0785682,0.0958769,0.14373],[-0.0718343,-0.0486961,-0.138843],[-0.0722841,-0.0155802,-0.0220058],[0.0216893,-0.0427231,-0.0609938],[-0.0950663,0.050922,-0.0593961],[0.0288123,-0.00181846,0.019464],[0.0213912,-0.00520475,-0.0106212],[-0.0123725,-0.0247484,-0.0286474],[-0.0155734,0.0711333,0.045802],[0.00214926,-0.0902147,-0.0395348],[0.0999203,0.100469,0.0692302],[-0.0659443,-0.0982549,0.0375594],[0.0357128,0.0574183,-0.00885003],[0.0497069,0.0435655,0.0423642],[0.0703156,0.0889355,0.0948895],[-0.0758408,-0.0620716,-0.00294075],[0.0807729,0.0673684,0.081382],[0.126183,0.132925,0.13534],[-0.111909,-0.0273605,-0.0189309],[-0.0435941,-0.0332103,-0.0452027],[-0.0111116,0.0628408,0.0652737],[0.0767431,0.0768969,0.0658696],[0.0248778,-0.0104697,-0.0539513],[0.153235,0.0356435,0.0973961],[0.0395569,0.0264682,-0.0362196],[0.072692,0.0439379,0.0425261],[-0.0344857,-0.0705915,-0.114636],[-0.0301636,-0.0277699,-0.0752346]],[[0.0297263,-0.0942283,-0.0791878],[0.153846,0.135268,0.101582],[0.0508106,0.000476492,-0.0237484],[0.00307077,-0.040178,-0.0816305],[-0.121215,-0.078182,-0.123585],[-0.0130809,0.0630677,0.0979872],[0.0134853,0.0225974,0.0722806],[0.0991714,0.00893498,0.0520072],[0.117577,0.175994,0.0500588],[-0.0163337,-0.0146797,-0.0477076],[-0.0636733,-0.0268769,0.0201376],[0.0489745,0.0220561,0.104308],[0.0478891,-0.0671848,-0.129745],[-0.0913294,-0.041792,-0.00221168],[-0.0291492,-0.0558974,0.00779554],[0.0895013,0.0793044,0.0977734],[-0.0542428,-0.0569888,-0.0650006],[-0.0515315,-0.00185324,0.0333353],[-0.0627279,-0.0806941,-0.0933321],[0.0220484,-0.0154952,-0.0361456],[-0.0718963,-0.041263,-0.0129261],[-0.190067,-0.0361456,-0.141638],[0.0783624,0.106646,0.116385],[0.0804218,0.0505087,0.0399892],[0.0538088,0.0119349,0.0467956],[-0.0108757,0.0313934,-0.0346328],[0.0271823,0.016783,0.016145],[0.00406427,-0.0341883,-0.022973],[0.0792887,-0.0574921,0.0596663],[-0.00498925,-0.0666435,0.00447099],[0.107364,0.149379,0.135177],[0.0147577,0.0670771,-0.0190564]],[[0.0955533,0.12783,0.0829798],[-0.0171509,-0.0535873,0.0212387],[-0.0825194,-0.0101593,-0.0776733],[0.0988618,0.0928492,0.106404],[-0.0286454,0.148997,0.0770533],[0.0121989,-0.0778841,-0.0682989],[-0.0431257,-0.0701418,-0.0191962],[0.00124142,-0.01959,-0.0354127],[-0.0291558,-0.00524184,-0.071388],[0.119745,0.138251,0.160533],[-0.000497502,-0.0462619,-0.087377],[-0.0374701,0.0350709,0.0574277],[-0.0486663,-0.0413345,-0.0733425],[0.101268,0.0770435,0.0756488],[0.142991,0.167284,0.173172],[-0.0120682,-0.0974191,-0.0648265],[0.0307181,0.0431199,0.0142775],[-0.0485581,-0.00145843,-0.0219172],[0.0941349,0.0959317,0.0289955],[-0.0950095,-0.0287191,-0.0122884],[0.0458642,0.0203357,0.00403133],[0.00183184,0.0308123,0.0303032],[-0.0105442,-0.0482128,-0.024107],[-0.0913645,-0.0942132,-0.0360889],[0.112774,-0.032718,0.0728245],[-0.0351081,0.0485026,0.0262796],[-0.0614977,-0.0712501,-0.0127827],[0.0470044,0.0809744,0.0764021],[-0.0838758,-0.0219965,-0.00799648],[0.0528947,0.0892767,0.0575369],[-0.0683325,-0.0401662,-0.047466],[-0.0253303,-0.105281,0.0554799]],[[-0.0113548,0.0310992,-0.101445],[-0.0564962,-0.0434001,-0.067179],[-0.0502931,0.000838128,-0.013163],[0.00352547,-0.00561778,0.0752784],[0.116196,0.0357823,0.226651],[-0.0712841,-0.115834,-0.138855],[-0.0384198,0.0152751,-0.0331891],[0.00091236,-0.00565125,-0.0291663],[-0.0505131,-0.0245428,-0.084559],[-0.0241899,0.0212632,-0.0334174],[0.0182505,0.0182369,0.0509788],[-0.023614,-0.0635219,-0.0551916],[0.032497,0.0689152,0.108503],[-0.0173371,-0.0612013,-0.0413014],[0.0685559,0.0584103,0.127931],[-0.119982,-0.0922521,0.0260943],[0.0732275,0.0736247,0.144953],[0.079506,0.0944351,0.0697953],[0.064912,0.075548,0.0766838],[-0.0301291,0.00073295,0.0103373],[0.1048,0.11696,0.114611],[0.2272,0.0857362,0.164297],[-0.0424452,-0.0648005,-0.0265409],[0.0111677,0.0286661,-0.00870181],[0.0590047,0.0212592,0.00153964],[0.0353041,0.0763811,0.106407],[0.0361795,0.031955,-0.0114046],[0.142703,0.0268366,0.122604],[-0.0398591,0.0360912,-0.0681271],[0.0161134,0.0132213,0.0315603],[-0.072896,0.0378235,-0.153797],[-0.0335461,0.0264543,-0.0620762]],[[0.0648289,-0.025501,0.0255642],[0.172895,0.127266,0.0665372],[-0.0346975,0.0247315,0.01949],[-0.0261171,-0.00224488,0.00298921],[-0.0463667,-0.0105473,-0.11189],[0.0747147,0.108289,0.0500748],[0.0542635,0.0943828,0.00621749],[0.00151108,0.0740525,-0.037452],[0.132279,0.0943035,0.0376043],[-0.0938971,-0.0347202,-0.0550011],[-0.0022758,-0.0609774,-0.106535],[0.0581456,0.0988931,0.0926186],[-0.0267873,0.019396,-0.133631],[-0.00444657,-0.0394495,-0.0586408],[-0.0347267,-0.0641755,0.0173991],[0.0910041,0.0789497,0.100413],[-0.103606,-0.101074,-0.0231112],[-0.107506,-0.0478841,-0.0146424],[-0.0950326,-0.0661102,-0.082309],[0.0188635,-0.0531381,-0.0167659],[-0.037435,-0.0161181,-0.0292985],[-0.168977,-0.0478364,-0.0927764],[0.141367,0.0394793,0.0369957],[0.0189582,0.0340043,-0.0423726],[0.0324415,0.0634361,0.0791051],[0.0304773,-0.0945897,-0.0328669],[0.0466032,0.029081,-0.00606251],[0.0201133,0.00617185,0.0021235],[-0.0451702,-0.0296971,0.0196378],[-0.0602844,0.00625456,-0.0410389],[0.110959,0.0174065,0.129299],[0.0410304,0.0572695,0.0268595]],[[-0.0802351,0.0345704,0.000383187],[-0.0413458,-0.0186787,0.0358202],[-0.00483497,-0.100371,-0.118944],[-0.0573214,0.0202958,-0.0124204],[0.0105222,0.0469015,0.0789218],[-0.00811398,-0.0546723,-0.0250674],[-0.101558,-0.0911871,-0.0897873],[-0.081823,-0.0395893,-0.134316],[0.0563102,-0.0544935,-0.0883042],[-0.0569351,-0.0545641,-0.0695934],[0.00773382,-0.0369379,-0.0570848],[0.0499825,0.110043,0.0365046],[0.0467829,0.0512719,0.0473548],[-0.0172014,-0.0876848,-0.0491512],[-0.0558247,-0.0697738,-0.00424328],[-0.0543164,0.0021204,-0.0192737],[-0.000392407,-0.125871,-0.0670846],[0.0334012,0.0206363,0.0649365],[0.0984635,0.0307516,0.0184269],[-0.0418804,-0.0534578,-0.029476],[0.018531,-0.000111998,0.0581672],[0.0616047,0.123037,0.164023],[-0.112643,-0.122287,-0.123101],[-0.0452694,-0.069572,-0.0544764],[-0.040175,-0.0550658,-0.0424326],[0.00560419,-0.111139,-0.0394566],[-0.02256,-0.0687414,-0.0228759],[0.0291325,-0.065042,0.00574994],[0.0525134,0.0782927,0.128013],[0.0127319,0.0600877,0.0422027],[-0.0261816,-0.0731167,-0.0827586],[-0.0274146,-0.0349157,0.0130062]],[[0.131333,0.0756909,0.1175],[-0.0597906,-0.0364945,0.0216153],[-0.0732938,-0.0576287,-0.0235602],[0.0464908,-0.0100594,0.0774477],[0.0666713,0.0716728,0.0680337],[-0.0095401,0.0326594,-0.0235811],[-0.0607124,-0.055035,0.0148655],[-0.00561921,0.00580897,-0.0431714],[-0.0640532,-0.0332648,-0.00108814],[0.0856979,0.07284,0.127196],[-0.0408904,-0.0596604,-0.0569565],[-0.0127193,0.0144503,-0.00887678],[-0.0898304,0.00372816,0.014295],[0.0738419,0.0803381,0.026586],[0.169748,0.130872,0.183469],[0.0010619,-0.0695963,0.0457139],[0.0302295,0.0442984,0.0885298],[-0.0723263,-0.0834956,-0.019933],[0.117945,0.0229531,0.0151713],[-0.0782406,-0.00784774,-0.0544314],[0.0149836,0.0299258,0.0566733],[0.0685206,0.0257034,0.013158],[-0.028294,-0.0195114,-0.0324562],[-0.103218,-0.079152,-0.0635914],[0.0917045,0.0713511,0.0990854],[0.0501207,0.0337626,-0.0279949],[-0.0731751,-0.00943655,-0.0530957],[0.103838,0.0497225,0.124511],[-0.0302276,-0.122304,-0.0838693],[0.0932407,0.111088,0.0575962],[-0.0651746,-0.0226254,-0.0775918],[-0.0421831,-0.079033,0.0187916]],[[-0.0163335,-0.00562851,0.00764686],[0.0270153,-0.0150501,0.0413418],[-0.0593978,-0.0746541,-0.0717466],[-0.058058,-0.0204797,-0.0453356],[0.0624899,-0.00928029,0.00274388],[0.0683169,0.0380477,0.0378609],[-0.0808593,-0.0414262,-0.0397207],[-0.0731606,-0.0899271,-0.0966153],[0.10238,0.0286945,0.0210225],[0.000746623,-0.0272372,-0.04786],[-0.0516861,-0.0837734,-0.113417],[0.0917268,0.109237,0.11246],[0.000255204,-0.0311151,-0.0278202],[-0.0365469,-0.0534682,-0.0267909],[-0.0575359,-0.112741,-0.0506855],[0.0475842,0.0397704,0.0413132],[-0.0704168,-0.102545,-0.065337],[-0.0761549,-0.0403604,-0.0414864],[0.0266866,0.0218548,-0.0378633],[-0.0869888,-0.0758652,-0.0716372],[-0.0481272,-0.0485171,0.0115106],[0.0762791,0.0312368,0.0549054],[-0.0963372,-0.108659,-0.157885],[-0.0694879,-0.105066,-0.0682338],[-0.105391,-0.0347816,-0.0162698],[-0.0162536,-0.223017,0.0374243],[-0.0883061,-0.146026,-0.0671041],[-0.0962475,-0.112655,-0.00768164],[0.105516,0.0460697,0.16942],[0.0541191,0.0342428,0.0243947],[-0.0150709,-0.0540751,0.00622676],[-0.0507914,-0.0255991,-0.0452498]],[[-0.013927,0.0340327,0.0599788],[-0.0063059,-0.0254118,-0.0340436],[-0.0626493,-0.0634509,-0.0801406],[0.0664072,0.0196522,0.0807125],[-0.00514812,0.0901348,0.0980843],[0.0320733,-0.0139911,-0.0259253],[0.0474425,-0.0213045,0.00279514],[0.0321284,0.0757801,0.00385188],[-0.080025,-0.0184716,-0.0296674],[0.144417,0.110363,0.0478202],[-0.0344104,-0.0643094,-0.0248213],[-0.0667779,-0.0254749,0.0064274],[-0.003344,-0.00626558,0.031399],[0.0282271,0.00938065,0.0927853],[0.18613,0.220032,0.268823],[0.0120458,-0.0327017,-0.0744561],[0.0756318,0.00882625,0.0932515],[-0.0373365,-0.0432965,-0.0244755],[0.0861068,0.0779461,0.0699393],[-0.0221256,-0.0333088,-0.0392097],[0.0509242,0.0270178,0.0391663],[0.0524279,0.0719973,0.0354251],[0.00693219,-0.0790259,0.012262],[-0.0970161,-0.0308562,-0.0129],[0.0609948,0.0481902,0.0492352],[-0.059213,0.0417839,0.00868155],[-0.0452478,-0.0362758,-0.0856116],[0.126979,0.100296,0.0987837],[-0.0783154,-0.0381386,-0.151799],[0.0166187,0.102058,0.00319403],[-0.0601723,-0.0305385,-0.0815137],[0.0611712,0.00712405,0.129677]],[[-0.0904169,-0.00858768,-0.0574368],[-0.0941575,0.0125542,-0.0360207],[0.0595969,-0.0227729,0.0226413],[-0.024583,-0.0489123,-0.0205593],[0.12329,0.00346205,0.0963407],[-0.0945772,-0.0401412,-0.156331],[-0.0646961,-0.0420696,-0.0261384],[-0.0946722,-0.0769733,-0.0539498],[0.00941537,-0.0515771,-0.0618869],[-0.0263119,-0.123394,-0.110503],[-0.000877444,0.098565,0.0616056],[-0.0257094,-0.0548221,-0.0233217],[0.0192538,0.0818971,0.125982],[-0.0373996,-0.0620979,-0.0465775],[-0.0380194,0.0104557,0.00222685],[-0.0687719,-0.0216762,0.0022661],[0.0529091,0.023463,0.126437],[0.120939,0.100381,0.101529],[0.0981274,0.00375054,0.0808856],[-0.0353431,-0.0206004,-0.0330186],[0.032801,0.0217232,0.0264641],[0.114225,0.0816539,0.150844],[-0.0532375,-0.0509234,0.00696967],[0.114478,0.0715387,0.0611768],[-0.0639929,-0.0701309,-0.123853],[-0.0190044,0.00912398,0.0170874],[0.104107,0.0827224,0.0858731],[-0.00179071,0.0135257,0.0298994],[0.0558766,0.050536,0.0430476],[-0.0359102,0.00167202,-0.0500796],[-0.0133681,0.0112916,-0.0959412],[-0.154772,-0.0286387,-0.0183146]],[[-0.0666042,0.0155723,-0.0563214],[0.012954,-0.0121953,-0.0255863],[-0.0426167,-0.0216611,-0.0305706],[-0.0762851,-0.0240528,-0.0996097],[0.0920713,-0.0074511,-0.0250645],[-0.166854,-0.103244,-0.0242439],[-0.00611768,0.00965802,-0.0606194],[-0.0377263,-0.055603,-0.0505567],[-0.0160345,0.0163762,-0.07721],[0.000769828,-0.126079,-0.0920888],[0.0752125,0.0833609,0.0606746],[0.048202,0.0169268,0.00302414],[-0.0783284,0.0924736,0.123481],[0.0695247,-0.112313,-0.0491284],